{"learner":{"attributes":{"best_iteration":"49","best_ntree_limit":"50"},"feature_names":["feature_0","feature_1","feature_2","feature_3","feature_4","feature_5","feature_6","feature_7","feature_8","feature_9","feature_10","feature_11","feature_12","feature_13","feature_14","feature_15","feature_16","feature_17","feature_18","feature_19","feature_20","feature_21","feature_22","feature_23"],"feature_types":["float","float","float","float","float","float","float","float","float","float","float","float","float","float","float","float","float","float","float","float","float","float","float","float"],"gradient_booster":{"model":{"gbtree_model_param":{"num_trees":"50","size_leaf_vector":"0"},"tree_info":[0,0,0,0,0,0,0,0,0,0,0,0,0,0,0,0,0,0,0,0,0,0,0,0,0,0,0,0,0,0,0,0,0,0,0,0,0,0,0,0,0,0,0,0,0,0,0,0,0,0],"trees":[{"base_weights":[-3.526524E-1,1.2247041E-1,-1.9998305E0,-1.999736E0,6.046151E-1,9.801723E-1,-1.999524E0,1.3603796E0,1.0299395E-1,1.5432107E0,6.5886617E-1,8.852271E-1,-6.193213E-1,1.6043304E0,6.318555E-1,1.1077336E0,1.9889984E-1,1.0618902E0,-8.5689867E-1,-1.351526E-1,-1.1009331E0],"categories":[],"categories_nodes":[],"categories_segments":[],"categories_sizes":[],"default_left":[true,true,false,false,true,true,false,true,true,true,true,true,true,false,false,false,false,false,false,false,false],"id":0,"left_children":[1,3,-1,-1,5,7,-1,9,11,13,15,17,19,-1,-1,-1,-1,-1,-1,-1,-1],"loss_changes":[4.331487E4,4.395461E4,0E0,0E0,3.4236613E4,1.0202941E4,0E0,2.7361172E3,5.22813E3,9.417539E2,9.110325E2,1.3681196E3,1.1215048E3,0E0,0E0,0E0,0E0,0E0,0E0,0E0,0E0],"parents":[2147483647,0,0,1,1,4,4,5,5,7,7,8,8,9,9,10,10,11,11,12,12],"right_children":[2,4,-1,-1,6,8,-1,10,12,14,16,18,20,-1,-1,-1,-1,-1,-1,-1,-1],"split_conditions":[1.5E0,5E-1,-1.9998305E-1,-1.999736E-1,5E-1,3.0729246E0,-1.9995241E-1,6.88295E0,6.466922E0,3.5E0,2.735341E0,3.5E0,1.5E0,1.6043304E-1,6.318555E-2,1.1077336E-1,1.9889984E-2,1.0618903E-1,-8.5689865E-2,-1.3515259E-2,-1.1009331E-1],"split_indices":[6,20,0,0,23,3,0,4,4,5,3,5,5,0,0,0,0,0,0,0,0],"split_type":[0,0,0,0,0,0,0,0,0,0,0,0,0,0,0,0,0,0,0,0,0],"sum_hessian":[5.5345E4,4.29555E4,1.23895E4,7.95175E3,3.500375E4,3.05925E4,4.41125E3,2.13415E4,9.251E3,1.692825E4,4.41325E3,4.44125E3,4.80975E3,1.58635E4,1.06475E3,2.23275E3,2.1805E3,4.03275E3,4.085E2,2.39925E3,2.4105E3],"tree_param":{"num_deleted":"0","num_feature":"24","num_nodes":"21","size_leaf_vector":"0"}},{"base_weights":[-3.2230908E-1,1.07350685E-1,-1.8185879E0,-1.8185098E0,5.455602E-1,1.002466E0,-1.8813875E0,1.4500381E0,3.2220393E-1,-2.1197414E0,-1.81833E0,1.6659756E0,1.1296569E0,5.6790197E-1,-2.5341615E-1,1.7514664E0,1.4918205E0,8.284536E-1,1.4133328E0,7.074164E-2,8.5240966E-1,-8.5609645E-2,-1.0546575E0],"categories":[],"categories_nodes":[],"categories_segments":[],"categories_sizes":[],"default_left":[true,true,false,false,true,true,true,true,true,false,false,true,true,true,true,false,false,false,false,false,false,false,false],"id":1,"left_children":[1,3,-1,-1,5,7,9,11,13,-1,-1,15,17,19,21,-1,-1,-1,-1,-1,-1,-1,-1],"loss_changes":[3.531814E4,3.6020715E4,0E0,0E0,3.8558246E4,8.908715E3,7.8552734E1,1.2188633E3,1.6427083E3,0E0,0E0,1.540039E2,6.0606445E2,1.1512163E3,4.6700348E2,0E0,0E0,0E0,0E0,0E0,0E0,0E0,0E0],"parents":[2147483647,0,0,1,1,4,4,5,5,6,6,7,7,8,8,11,11,12,12,13,13,14,14],"right_children":[2,4,-1,-1,6,8,10,12,14,-1,-1,16,18,20,22,-1,-1,-1,-1,-1,-1,-1,-1],"split_conditions":[1.5E0,5E-1,-1.818588E-1,-1.8185098E-1,5E-1,6.5374155E0,5E-1,5.997694E0,7.25665E0,-2.1197414E-1,-1.8183301E-1,5.6612215E0,5E-1,5E-1,7.9985037E0,1.7514664E-1,1.4918205E-1,8.284536E-2,1.4133328E-1,7.0741638E-3,8.524097E-2,-8.560965E-3,-1.0546575E-1],"split_indices":[6,20,0,0,21,4,23,4,4,0,0,4,22,22,4,0,0,0,0,0,0,0,0],"split_type":[0,0,0,0,0,0,0,0,0,0,0,0,0,0,0,0,0,0,0,0,0,0,0],"sum_hessian":[5.4934883E4,4.268007E4,1.2254814E4,7.9106504E3,3.4769418E4,2.9261225E4,5.508194E3,1.7648367E4,1.1612857E4,1.1451981E3,4.3629956E3,1.0539928E4,7.108439E3,8.1389927E3,3.473865E3,7.063097E3,3.47683E3,3.4497803E3,3.6586587E3,2.9629731E3,5.1760195E3,2.873327E3,6.0053827E2],"tree_param":{"num_deleted":"0","num_feature":"24","num_nodes":"23","size_leaf_vector":"0"}},{"base_weights":[-2.9467392E-1,1.0092864E-1,-1.682454E0,-1.6823823E0,4.9926114E-1,9.10548E-1,-1.7294294E0,1.345739E0,2.1068278E-1,-1.9052415E0,-1.6822197E0,1.5387019E0,8.7733454E-1,1.0613579E0,-3.1978372E-1,9.765767E-1,1.6559439E0,-7.009371E-1,1.2186289E0,3.999873E-3,1.3443729E0,-1.2065777E0,2.0552947E-1],"categories":[],"categories_nodes":[],"categories_segments":[],"categories_sizes":[],"default_left":[true,true,false,false,true,true,true,true,true,false,false,true,true,true,true,false,false,false,false,false,false,false,false],"id":2,"left_children":[1,3,-1,-1,5,7,9,11,13,-1,-1,15,17,19,21,-1,-1,-1,-1,-1,-1,-1,-1],"loss_changes":[2.9622477E4,2.9826715E4,0E0,0E0,3.1462332E4,8.824875E3,4.0820312E1,1.6132168E3,5.014245E3,0E0,0E0,8.3193555E2,2.8100503E3,1.2769766E3,3.1886453E3,0E0,0E0,0E0,0E0,0E0,0E0,0E0,0E0],"parents":[2147483647,0,0,1,1,4,4,5,5,6,6,7,7,8,8,11,11,12,12,13,13,14,14],"right_children":[2,4,-1,-1,6,8,10,12,14,-1,-1,16,18,20,22,-1,-1,-1,-1,-1,-1,-1,-1],"split_conditions":[1.5E0,5E-1,-1.682454E-1,-1.6823824E-1,5E-1,2.9818869E0,5E-1,6.6599345E0,6.2681484E0,-1.9052415E-1,-1.6822198E-1,8.110577E0,8.5853195E0,7.9302053E0,8.481255E0,9.765767E-2,1.6559438E-1,-7.009371E-2,1.2186289E-1,3.999873E-4,1.344373E-1,-1.20657764E-1,2.0552946E-2],"split_indices":[6,20,0,0,21,3,23,4,4,0,0,2,2,2,2,0,0,0,0,0,0,0,0],"split_type":[0,0,0,0,0,0,0,0,0,0,0,0,0,0,0,0,0,0,0,0,0,0,0],"sum_hessian":[5.3954637E4,4.1986703E4,1.1967934E4,7.665452E3,3.432125E4,2.8974818E4,5.346432E3,1.7864947E4,1.1109871E4,1.1229642E3,4.223468E3,1.265084E4,5.2141074E3,4.266748E3,6.8431226E3,2.18498E3,1.046586E4,9.268166E2,4.2872905E3,9.011977E2,3.3655505E3,2.5452751E3,4.297847E3],"tree_param":{"num_deleted":"0","num_feature":"24","num_nodes":"23","size_leaf_vector":"0"}},{"base_weights":[-2.7146494E-1,-1.5767434E0,3.7229095E-2,3.0355275E-1,-1.609126E0,8.615903E-1,-2.1479176E-1,-1.7233963E0,-1.5765778E0,1.169066E0,5.211625E-1,3.315791E-1,-6.618841E-1,1.4046657E0,9.616507E-1,9.285422E-1,1.6571218E-1,6.899078E-1,-1.953893E-1,-2.0677485E-1,-1.0640172E0,1.5120595E0,1.2762154E0,1.0870074E0,5.181484E-1,1.2177687E0,7.3042357E-1,3.281046E-1,-6.780956E-1,7.602804E-1,-5.077373E-1,-2.5542699E-2,-9.8086625E-1,7.817038E-2,-7.775769E-1,-7.6784E-1,-1.384149E0],"categories":[],"categories_nodes":[],"categories_segments":[],"categories_sizes":[],"default_left":[true,false,true,true,true,true,true,false,false,true,true,true,true,true,true,true,true,true,true,true,true,false,false,false,false,false,false,false,false,false,false,false,false,false,false,false,false],"id":3,"left_children":[1,-1,3,5,7,9,11,-1,-1,13,15,17,19,21,23,25,27,29,31,33,35,-1,-1,-1,-1,-1,-1,-1,-1,-1,-1,-1,-1,-1,-1,-1,-1],"loss_changes":[2.1217152E4,0E0,1.8672791E4,1.0603566E4,1.9007812E1,1.8470205E3,4.642814E3,0E0,0E0,4.5162695E2,1.213123E3,1.6153357E3,1.9126406E3,5.7658203E1,2.7367822E2,2.2263135E2,6.1357153E2,4.2955493E2,4.6184402E2,7.978683E2,5.248496E2,0E0,0E0,0E0,0E0,0E0,0E0,0E0,0E0,0E0,0E0,0E0,0E0,0E0,0E0,0E0,0E0],"parents":[2147483647,0,0,2,2,3,3,4,4,5,5,6,6,9,9,10,10,11,11,12,12,13,13,14,14,15,15,16,16,17,17,18,18,19,19,20,20],"right_children":[2,-1,4,6,8,10,12,-1,-1,14,16,18,20,22,24,26,28,30,32,34,36,-1,-1,-1,-1,-1,-1,-1,-1,-1,-1,-1,-1,-1,-1,-1,-1],"split_conditions":[5E-1,-1.5767434E-1,5E-1,6.384351E0,5E-1,1.5E0,2.901147E0,-1.7233963E-1,-1.5765779E-1,5.7317204E0,5.71867E0,1.5E0,1.5E0,5.265274E0,3.108391E0,5.0845003E0,3.5E0,7.9045196E0,3.5E0,7.218543E0,7.019744E0,1.5120594E-1,1.2762155E-1,1.08700745E-1,5.1814843E-2,1.2177687E-1,7.3042355E-2,3.281046E-2,-6.780956E-2,7.602804E-2,-5.077373E-2,-2.55427E-3,-9.8086625E-2,7.817038E-3,-7.7757694E-2,-7.678401E-2,-1.384149E-1],"split_indices":[20,0,21,4,23,5,3,0,0,4,4,5,5,4,3,4,5,4,5,4,4,0,0,0,0,0,0,0,0,0,0,0,0,0,0,0,0],"split_type":[0,0,0,0,0,0,0,0,0,0,0,0,0,0,0,0,0,0,0,0,0,0,0,0,0,0,0,0,0,0,0,0,0,0,0,0,0],"sum_hessian":[5.2655418E4,1.0070336E4,4.2585082E4,3.665624E4,5.928843E3,1.7652018E4,1.900422E4,1.3021676E3,4.6266753E3,9.273465E3,8.378554E3,8.552563E3,1.0451657E4,4.338816E3,4.934649E3,3.9032114E3,4.4753423E3,5.090797E3,3.4617666E3,4.903708E3,5.547949E3,2.3568054E3,1.9820106E3,3.8459175E3,1.0887313E3,1.5844607E3,2.3187507E3,3.7536707E3,7.216714E2,4.808691E3,2.8210587E2,2.8472542E3,6.145125E2,3.2713386E3,1.6323693E3,2.8837205E3,2.6642288E3],"tree_param":{"num_deleted":"0","num_feature":"24","num_nodes":"37","size_leaf_vector":"0"}},{"base_weights":[-2.4946238E-1,-1.4925888E0,3.4805626E-2,2.7783945E-1,-1.5186083E0,7.248924E-1,-2.7095467E-1,-1.60967E0,-1.4924289E0,1.6773222E-1,9.537714E-1,-1.0359885E0,1.15643695E-1,7.840904E-1,-7.079994E-1,1.0399917E0,-4.1727755E-2,-6.385981E-1,-1.4472612E0,5.1343447E-1,-5.913503E-1,8.998177E-1,-4.2249733E-1,-1.4594295E0,-3.223608E-1,1.412276E0,9.15517E-1,3.6541742E-1,-8.303283E-1,-1.2510815E0,5.9375275E-2,-1.6172162E0,-1.2361393E0,7.6130784E-1,-4.1957384E-1,-1.1745614E0,-7.71355E-2],"categories":[],"categories_nodes":[],"categories_segments":[],"categories_sizes":[],"default_left":[true,false,true,true,true,true,true,false,false,true,true,true,true,true,true,true,true,true,true,true,true,false,false,false,false,false,false,false,false,false,false,false,false,false,false,false,false],"id":4,"left_children":[1,-1,3,5,7,9,11,-1,-1,13,15,17,19,21,23,25,27,29,31,33,35,-1,-1,-1,-1,-1,-1,-1,-1,-1,-1,-1,-1,-1,-1,-1,-1],"loss_changes":[1.8223262E4,0E0,1.5845783E4,8.904615E3,1.0824219E1,2.5503496E3,4.8192305E3,0E0,0E0,3.1448772E3,1.2169883E3,8.9284424E2,3.044599E3,4.7791455E2,6.967992E2,6.030791E2,3.6344495E2,1.1902655E3,9.4131836E1,1.6025289E3,1.1687626E3,0E0,0E0,0E0,0E0,0E0,0E0,0E0,0E0,0E0,0E0,0E0,0E0,0E0,0E0,0E0,0E0],"parents":[2147483647,0,0,2,2,3,3,4,4,5,5,6,6,9,9,10,10,11,11,12,12,13,13,14,14,15,15,16,16,17,17,18,18,19,19,20,20],"right_children":[2,-1,4,6,8,10,12,-1,-1,14,16,18,20,22,24,26,28,30,32,34,36,-1,-1,-1,-1,-1,-1,-1,-1,-1,-1,-1,-1,-1,-1,-1,-1],"split_conditions":[5E-1,-1.4925888E-1,5E-1,6.5359664E0,5E-1,8.168061E0,8.626944E0,-1.60967E-1,-1.492429E-1,5.887491E0,3.5E0,6.870572E0,7.332042E0,3.5E0,7.866914E0,5E-1,3.0152898E0,8.368809E0,8.447736E0,2.5E0,9.098067E0,8.998177E-2,-4.2249735E-2,-1.4594296E-1,-3.223608E-2,1.412276E-1,9.15517E-2,3.654174E-2,-8.303283E-2,-1.2510815E-1,5.9375274E-3,-1.6172163E-1,-1.2361393E-1,7.6130785E-2,-4.1957386E-2,-1.1745614E-1,-7.7135502E-3],"split_indices":[20,0,21,4,23,2,2,0,0,4,5,4,4,5,2,5,3,2,2,5,2,0,0,0,0,0,0,0,0,0,0,0,0,0,0,0,0],"split_type":[0,0,0,0,0,0,0,0,0,0,0,0,0,0,0,0,0,0,0,0,0,0,0,0,0,0,0,0,0,0,0,0,0,0,0,0,0],"sum_hessian":[5.156674E4,9.596517E3,4.1970223E4,3.6293016E4,5.677209E3,2.0000379E4,1.6292636E4,1.2533359E3,4.423873E3,5.824346E3,1.4176032E4,5.4688965E3,1.0823739E4,3.4185312E3,2.405815E3,1.3046159E4,1.1298733E3,2.7828132E3,2.6860835E3,6.92679E3,3.8969492E3,3.1196536E3,2.9887784E2,8.149035E2,1.5909114E3,3.26623E3,9.779929E3,7.454276E2,3.8444568E2,1.4818317E3,1.3009816E3,1.484176E3,1.2019075E3,5.4730503E3,1.4537399E3,1.8252793E3,2.07167E3],"tree_param":{"num_deleted":"0","num_feature":"24","num_nodes":"37","size_leaf_vector":"0"}},{"base_weights":[-2.3251541E-1,-1.4242643E0,3.0826971E-2,2.5236827E-1,-1.4456111E0,5.9284246E-1,-2.4654889E-1,8.4880036E-1,2.5900817E-1,1.4802854E-1,-5.817754E-1,1.1243849E0,6.8627346E-1,6.726768E-1,7.18126E-2,4.930506E-1,-7.632481E-2,-1.6236302E-1,-8.7164456E-1,1.2829143E0,9.8451537E-1,9.3153185E-1,5.230647E-1,1.0096246E0,5.9302425E-1,2.0053384E-1,-5.5475956E-1,-3.9613923E-1,6.65102E-1,-8.807451E-1,1.9898301E-1,-8.800954E-1,1.783108E-2,-6.9388384E-1,-1.43401E0],"categories":[],"categories_nodes":[],"categories_segments":[],"categories_sizes":[],"default_left":[true,false,true,true,false,true,true,true,true,true,true,true,true,true,true,true,true,true,true,false,false,false,false,false,false,false,false,false,false,false,false,false,false,false,false],"id":5,"left_children":[1,-1,3,5,-1,7,9,11,13,15,17,19,21,23,25,27,29,31,33,-1,-1,-1,-1,-1,-1,-1,-1,-1,-1,-1,-1,-1,-1,-1,-1],"loss_changes":[1.5728513E4,0E0,1.3426388E4,6.063183E3,0E0,1.8124575E3,1.9151924E3,5.3686816E2,7.1296204E2,5.149132E2,9.5145605E2,9.724121E1,3.0181885E2,7.623047E1,5.1149692E2,4.0127307E2,8.929564E2,4.1403458E2,4.614922E2,0E0,0E0,0E0,0E0,0E0,0E0,0E0,0E0,0E0,0E0,0E0,0E0,0E0,0E0,0E0,0E0],"parents":[2147483647,0,0,2,2,3,3,5,5,6,6,7,7,8,8,9,9,10,10,11,11,12,12,13,13,14,14,15,15,16,16,17,17,18,18],"right_children":[2,-1,4,6,-1,8,10,12,14,16,18,20,22,24,26,28,30,32,34,-1,-1,-1,-1,-1,-1,-1,-1,-1,-1,-1,-1,-1,-1,-1,-1],"split_conditions":[5E-1,-1.4242643E-1,5E-1,2.9818869E0,-1.4456111E-1,1.5E0,1.5E0,2.4064944E0,2.3855464E0,5.775855E0,5.8733425E0,5E-1,5E-1,1.614425E0,3.5E0,7.8663387E0,8.374361E0,7.8563194E0,3.5E0,1.2829143E-1,9.845154E-2,9.3153186E-2,5.230647E-2,1.0096246E-1,5.9302427E-2,2.0053385E-2,-5.5475958E-2,-3.9613925E-2,6.65102E-2,-8.807451E-2,1.9898301E-2,-8.800954E-2,1.783108E-3,-6.938838E-2,-1.4340101E-1],"split_indices":[20,0,21,3,0,5,5,3,3,1,1,5,5,3,5,2,2,2,5,0,0,0,0,0,0,0,0,0,0,0,0,0,0,0,0],"split_type":[0,0,0,0,0,0,0,0,0,0,0,0,0,0,0,0,0,0,0,0,0,0,0,0,0,0,0,0,0,0,0,0,0,0,0],"sum_hessian":[5.011508E4,9.069097E3,4.1045984E4,3.569135E4,5.354633E3,2.121422E4,1.4477129E4,1.2006634E4,9.207588E3,6.6500117E3,7.827117E3,4.451696E3,7.554938E3,2.8675933E3,6.339994E3,2.6200352E3,4.0299766E3,3.1995642E3,4.6275527E3,2.0824932E3,2.369203E3,3.0165562E3,4.538382E3,5.458018E2,2.3217913E3,5.2601943E3,1.0798002E3,4.244621E2,2.1955732E3,1.0270907E3,3.0028857E3,6.4141406E2,2.5581501E3,3.5179573E3,1.1095955E3],"tree_param":{"num_deleted":"0","num_feature":"24","num_nodes":"35","size_leaf_vector":"0"}},{"base_weights":[-2.1524817E-1,-1.3679177E0,2.7472261E-2,2.2988941E-1,-1.3857285E0,7.648556E-1,-1.5712894E-1,2.0861411E-2,8.769875E-1,-9.8161197E-1,9.31274E-2,7.4383646E-1,-8.0336463E-1,1.1339524E0,7.283366E-1,-6.445262E-1,-1.4271581E0,5.2661294E-1,-4.4549787E-1,-5.5433583E-1,8.413733E-1,-1.4644359E0,-4.3567875E-1,1.2589736E0,1.015864E0,4.307523E-1,8.720275E-1,-1.2995496E0,-1.0416544E-1,-8.3402526E-1,-1.4717091E0,1.5542692E-1,6.9461477E-1,-1.123483E0,-3.2610815E-2],"categories":[],"categories_nodes":[],"categories_segments":[],"categories_sizes":[],"default_left":[true,false,true,true,false,true,true,true,true,true,true,true,true,true,true,true,true,true,true,false,false,false,false,false,false,false,false,false,false,false,false,false,false,false,false],"id":6,"left_children":[1,-1,3,5,-1,7,9,11,13,15,17,19,21,23,25,27,29,31,33,-1,-1,-1,-1,-1,-1,-1,-1,-1,-1,-1,-1,-1,-1,-1,-1],"loss_changes":[1.3727964E4,0E0,1.1594909E4,7.3409736E3,0E0,1.241543E3,4.245103E3,1.1628865E3,4.930371E2,7.183789E2,3.6854797E3,1.3213617E2,2.2081128E2,6.844287E1,3.4999365E2,9.6574744E2,5.3041992E1,5.451987E2,1.9701886E3,0E0,0E0,0E0,0E0,0E0,0E0,0E0,0E0,0E0,0E0,0E0,0E0,0E0,0E0,0E0,0E0],"parents":[2147483647,0,0,2,2,3,3,5,5,6,6,7,7,8,8,9,9,10,10,11,11,12,12,13,13,14,14,15,15,16,16,17,17,18,18],"right_children":[2,-1,4,6,-1,8,10,12,14,16,18,20,22,24,26,28,30,32,34,-1,-1,-1,-1,-1,-1,-1,-1,-1,-1,-1,-1,-1,-1,-1,-1],"split_conditions":[5E-1,-1.3679177E-1,5E-1,6.262445E0,-1.3857286E-1,7.8569E0,8.430437E0,5.589118E0,5.495115E0,6.6927037E0,7.055744E0,7.064331E0,7.631674E0,4.9593363E0,8.307336E0,8.147867E0,2.5847516E0,8.671544E0,8.892199E0,-5.5433583E-2,8.4137335E-2,-1.4644359E-1,-4.3567877E-2,1.2589736E-1,1.015864E-1,4.307523E-2,8.720275E-2,-1.2995496E-1,-1.0416544E-2,-8.340253E-2,-1.4717092E-1,1.55426925E-2,6.946148E-2,-1.12348296E-1,-3.2610816E-3],"split_indices":[20,0,21,4,0,2,2,4,4,4,4,2,2,4,2,2,3,2,2,0,0,0,0,0,0,0,0,0,0,0,0,0,0,0,0],"split_type":[0,0,0,0,0,0,0,0,0,0,0,0,0,0,0,0,0,0,0,0,0,0,0,0,0,0,0,0,0,0,0,0,0,0,0],"sum_hessian":[4.906601E4,8.534029E3,4.053198E4,3.5454613E4,5.077367E3,1.4882363E4,2.0572252E4,1.9495033E3,1.2932859E4,4.789724E3,1.5782528E4,1.0386573E3,9.108459E2,4.736988E3,8.195872E3,2.7282725E3,2.0614517E3,8.744868E3,7.03766E3,7.2185974E1,9.664714E2,3.243802E2,5.8646576E2,2.295846E3,2.4411418E3,2.6703228E3,5.525549E3,1.2325679E3,1.4957045E3,1.455554E2,1.9158964E3,2.7255388E3,6.019329E3,2.6629595E3,4.3747007E3],"tree_param":{"num_deleted":"0","num_feature":"24","num_nodes":"35","size_leaf_vector":"0"}},{"base_weights":[-2.0180923E-1,-1.3208525E0,2.4299746E-2,2.0895937E-1,-1.3361617E0,6.813007E-1,-1.6604847E-1,-1.3911206E0,-1.3194138E0,1.6562368E-1,8.3136505E-1,-8.590764E-1,9.522281E-2,6.4925456E-1,-5.7358974E-1,9.6583575E-1,3.573876E-1,-5.443182E-1,-1.3020962E0,4.7502145E-1,-4.5160177E-1,7.6892793E-1,-4.946624E-1,-1.225468E0,-1.6724108E-1,1.2511284E0,8.567877E-1,7.45525E-1,1.2062374E-1,-1.1744281E0,-2.5742736E-2,-1.0165869E0,-1.4082533E0,6.000385E-1,-8.462818E-1,-9.95483E-1,-1.9652043E-2],"categories":[],"categories_nodes":[],"categories_segments":[],"categories_sizes":[],"default_left":[true,false,true,true,true,true,true,false,false,true,true,true,true,true,true,true,true,true,true,true,true,false,false,false,false,false,false,false,false,false,false,false,false,false,false,false,false],"id":7,"left_children":[1,-1,3,5,7,9,11,-1,-1,13,15,17,19,21,23,25,27,29,31,33,35,-1,-1,-1,-1,-1,-1,-1,-1,-1,-1,-1,-1,-1,-1,-1,-1],"loss_changes":[1.2054036E4,0E0,9.956638E3,6.181452E3,2.2539062E0,1.194918E3,3.5225193E3,0E0,0E0,1.2454669E3,7.619746E2,7.4181006E2,2.934375E3,2.886917E2,3.6463297E2,2.886084E2,2.4294296E2,1.0179316E3,6.5353516E1,1.3777869E3,1.3603833E3,0E0,0E0,0E0,0E0,0E0,0E0,0E0,0E0,0E0,0E0,0E0,0E0,0E0,0E0,0E0,0E0],"parents":[2147483647,0,0,2,2,3,3,4,4,5,5,6,6,9,9,10,10,11,11,12,12,13,13,14,14,15,15,16,16,17,17,18,18,19,19,20,20],"right_children":[2,-1,4,6,8,10,12,-1,-1,14,16,18,20,22,24,26,28,30,32,34,36,-1,-1,-1,-1,-1,-1,-1,-1,-1,-1,-1,-1,-1,-1,-1,-1],"split_conditions":[5E-1,-1.3208525E-1,5E-1,6.319868E0,5E-1,8.044786E0,8.512583E0,-1.3911206E-1,-1.3194138E-1,5.7822847E0,2.5E0,6.760994E0,7.1479526E0,3.5E0,7.794411E0,5E-1,5.558755E0,8.224431E0,5.7536354E0,3.5E0,9.002331E0,7.689279E-2,-4.946624E-2,-1.2254681E-1,-1.6724108E-2,1.2511285E-1,8.567877E-2,7.45525E-2,1.2062374E-2,-1.1744281E-1,-2.5742736E-3,-1.01658694E-1,-1.4082533E-1,6.0003854E-2,-8.462819E-2,-9.95483E-2,-1.9652043E-3],"split_indices":[20,0,21,4,23,2,2,0,0,4,5,4,4,5,2,5,4,2,1,5,2,0,0,0,0,0,0,0,0,0,0,0,0,0,0,0,0],"split_type":[0,0,0,0,0,0,0,0,0,0,0,0,0,0,0,0,0,0,0,0,0,0,0,0,0,0,0,0,0,0,0,0,0,0,0,0,0],"sum_hessian":[4.763792E4,8.006801E3,3.963112E4,3.489556E4,4.7355615E3,1.5443341E4,1.9452219E4,1.0854829E3,3.6500786E3,3.4816985E3,1.1961643E4,5.325173E3,1.4127046E4,2.1048535E3,1.3768448E3,9.317075E3,2.6445674E3,3.1146912E3,2.2104817E3,8.336924E3,5.7901216E3,1.9058809E3,1.9897272E2,5.278262E2,8.490187E2,2.573325E3,6.7437495E3,1.001005E3,1.6435625E3,1.4054733E3,1.709218E3,6.022496E2,1.608232E3,7.6168647E3,7.200593E2,2.5623064E3,3.227815E3],"tree_param":{"num_deleted":"0","num_feature":"24","num_nodes":"37","size_leaf_vector":"0"}},{"base_weights":[-1.8714997E-1,-1.2811224E0,2.3193153E-2,1.9306034E-1,-1.2940127E0,5.302688E-1,-2.615056E-1,8.1532174E-1,2.3327412E-1,-8.071503E-1,1.0453266E-1,2.5619674E-1,9.343223E-1,7.562365E-1,3.5665523E-2,-4.6760076E-1,-1.194955E0,3.82649E-1,-6.7134875E-1,7.571235E-1,-9.0088034E-1,1.158281E0,7.882558E-1,-3.067078E-1,7.9813457E-1,-4.752447E-1,3.6266562E-1,-1.076664E0,1.1180451E-2,-9.856335E-1,-1.4037468E0,7.735463E-1,-9.7662166E-2,-1.0892183E0,-6.365488E-2],"categories":[],"categories_nodes":[],"categories_segments":[],"categories_sizes":[],"default_left":[true,false,true,true,false,true,true,true,true,true,true,true,true,true,true,true,true,true,true,false,false,false,false,false,false,false,false,false,false,false,false,false,false,false,false],"id":8,"left_children":[1,-1,3,5,-1,7,9,11,13,15,17,19,21,23,25,27,29,31,33,-1,-1,-1,-1,-1,-1,-1,-1,-1,-1,-1,-1,-1,-1,-1,-1],"loss_changes":[1.0636831E4,0E0,8.675114E3,5.26438E3,0E0,1.6689424E3,2.921533E3,6.690127E2,9.9795667E2,7.726084E2,1.8894275E3,1.0248081E3,2.7022266E2,1.18240234E2,1.1713888E3,9.137353E2,1.1816504E2,1.2103127E3,5.865189E2,0E0,0E0,0E0,0E0,0E0,0E0,0E0,0E0,0E0,0E0,0E0,0E0,0E0,0E0,0E0,0E0],"parents":[2147483647,0,0,2,2,3,3,5,5,6,6,7,7,8,8,9,9,10,10,11,11,12,12,13,13,14,14,15,15,16,16,17,17,18,18],"right_children":[2,-1,4,6,-1,8,10,12,14,16,18,20,22,24,26,28,30,32,34,-1,-1,-1,-1,-1,-1,-1,-1,-1,-1,-1,-1,-1,-1,-1,-1],"split_conditions":[5E-1,-1.2811224E-1,5E-1,6.597827E0,-1.2940127E-1,1.5E0,8.739536E0,8.060698E0,5.503295E0,6.9503355E0,7.5253706E0,6.0649467E0,5E-1,7.352441E0,8.303381E0,8.382403E0,6.1877403E0,1.5E0,9.291044E0,7.5712346E-2,-9.008803E-2,1.158281E-1,7.8825586E-2,-3.067078E-2,7.981346E-2,-4.752447E-2,3.626656E-2,-1.07666396E-1,1.1180452E-3,-9.856335E-2,-1.4037469E-1,7.735463E-2,-9.766216E-3,-1.08921826E-1,-6.365488E-3],"split_indices":[20,0,21,4,0,5,2,2,4,4,4,4,5,2,2,2,1,5,2,0,0,0,0,0,0,0,0,0,0,0,0,0,0,0,0],"split_type":[0,0,0,0,0,0,0,0,0,0,0,0,0,0,0,0,0,0,0,0,0,0,0,0,0,0,0,0,0,0,0,0,0,0,0],"sum_hessian":[4.622339E4,7.453566E3,3.876983E4,3.4342004E4,4.4278237E3,1.9716133E4,1.4625869E4,1.0059258E4,9.656875E3,5.871873E3,8.753996E3,1.765945E3,8.293313E3,2.647377E3,7.009498E3,3.1320303E3,2.739843E3,6.4445645E3,2.3094321E3,1.2327079E3,5.3323706E2,3.2707598E3,5.0225537E3,1.0006424E2,2.5473127E3,2.7352073E3,4.274291E3,1.3780089E3,1.7540212E3,1.3712819E3,1.368561E3,3.5527695E3,2.8917947E3,1.3678787E3,9.4155347E2],"tree_param":{"num_deleted":"0","num_feature":"24","num_nodes":"35","size_leaf_vector":"0"}},{"base_weights":[-1.7532079E-1,2.270977E-1,-1.5405527E0,-1.2472177E0,4.8042467E-1,-1.2467446E0,-1.6050589E0,6.6162306E-1,-1.2457755E0,-1.716428E0,-1.5170727E0,9.0172553E-1,-4.555828E-2,-1.7535189E0,-1.241248E0,-1.6107513E0,-1.4472936E0,9.5869666E-1,-1.3857485E-1,6.5369076E-1,-3.232253E-1,-1.8742682E0,-1.6935855E0,-1.7004278E0,-1.5423954E0,-1.5241663E0,-1.4040631E0,1.0219904E0,9.9724345E-2,1.5183586E-1,-1.0317798E0,8.286479E-1,-8.0456275E-1,-2.138212E-1,-1.4005315E0,-1.9169055E0,-1.777502E0,-1.8385277E0,-1.6446623E0,-1.7477156E0,-1.5780685E0,-1.550315E0,-1.20231E0,-1.583402E0,-1.4523401E0,-1.4498667E0,-1.3685373E0],"categories":[],"categories_nodes":[],"categories_segments":[],"categories_sizes":[],"default_left":[true,true,true,false,true,false,true,true,false,true,true,true,true,true,false,true,true,true,true,true,true,true,true,true,true,true,true,false,false,false,false,false,false,false,false,false,false,false,false,false,false,false,false,false,false,false,false],"id":9,"left_children":[1,3,5,-1,7,-1,9,11,-1,13,15,17,19,21,-1,23,25,27,29,31,33,35,37,39,41,43,45,-1,-1,-1,-1,-1,-1,-1,-1,-1,-1,-1,-1,-1,-1,-1,-1,-1,-1,-1,-1],"loss_changes":[2.4588357E4,1.2910598E4,1.9081836E2,0E0,9.227554E3,0E0,7.890234E1,4.533209E3,0E0,6.2339844E1,2.7916992E1,1.1814424E3,1.3141714E3,2.1137695E1,0E0,9.2265625E0,6.504883E0,1.0271152E3,2.6887366E2,4.9148676E2,5.705619E2,8.4716797E-1,1.2858887E1,1.8195801E0,9.267578E-1,1.4621582E0,5.5688477E-1,0E0,0E0,0E0,0E0,0E0,0E0,0E0,0E0,0E0,0E0,0E0,0E0,0E0,0E0,0E0,0E0,0E0,0E0,0E0,0E0],"parents":[2147483647,0,0,1,1,2,2,4,4,6,6,7,7,9,9,10,10,11,11,12,12,13,13,15,15,16,16,17,17,18,18,19,19,20,20,21,21,22,22,23,23,24,24,25,25,26,26],"right_children":[2,4,6,-1,8,-1,10,12,-1,14,16,18,20,22,-1,24,26,28,30,32,34,36,38,40,42,44,46,-1,-1,-1,-1,-1,-1,-1,-1,-1,-1,-1,-1,-1,-1,-1,-1,-1,-1,-1,-1],"split_conditions":[1.5E0,5E-1,5E-1,-1.24721766E-1,5E-1,-1.2467446E-1,6.5359664E0,3.1469502E0,-1.24577545E-1,5E-1,2.9027944E0,7.588577E0,6.076494E0,1.5E0,-1.241248E-1,1.5E0,1.5E0,3.5E0,8.288786E0,3.5E0,3.5E0,2.990971E0,5.6149497E0,7.332042E0,5E-1,7.2037773E0,7.034828E0,1.0219904E-1,9.9724345E-3,1.5183586E-2,-1.0317798E-1,8.286479E-2,-8.045628E-2,-2.1382121E-2,-1.4005315E-1,-1.9169055E-1,-1.777502E-1,-1.8385278E-1,-1.6446623E-1,-1.7477156E-1,-1.5780686E-1,-1.550315E-1,-1.20230995E-1,-1.583402E-1,-1.4523402E-1,-1.4498667E-1,-1.3685374E-1],"split_indices":[6,20,20,0,23,0,4,3,0,23,3,4,4,5,0,5,5,5,4,5,5,3,4,4,23,4,4,0,0,0,0,0,0,0,0,0,0,0,0,0,0,0,0,0,0,0,0],"split_type":[0,0,0,0,0,0,0,0,0,0,0,0,0,0,0,0,0,0,0,0,0,0,0,0,0,0,0,0,0,0,0,0,0,0,0,0,0,0,0,0,0,0,0,0,0,0,0],"sum_hessian":[4.4753496E4,3.4565625E4,1.0187873E4,5.06778E3,2.9497844E4,1.8380312E3,8.349842E3,2.6696229E4,2.8016157E3,3.6765664E3,4.673275E3,1.9929592E4,6.7666357E3,3.4076748E3,2.6889142E2,1.9849504E3,2.6883245E3,1.8895E4,1.034593E3,1.9227808E3,4.843855E3,1.1197476E3,2.2879272E3,8.476176E2,1.1373328E3,9.5448596E2,1.7338386E3,1.7597979E4,1.2970211E3,7.812882E2,2.533048E2,1.7172502E3,2.055305E2,4.3984673E3,4.4538785E2,7.634928E2,3.5625476E2,5.676271E2,1.7203003E3,6.011801E2,2.4643755E2,1.1076849E3,2.9647816E1,5.1079343E2,4.4369254E2,7.3874634E2,9.950922E2],"tree_param":{"num_deleted":"0","num_feature":"24","num_nodes":"47","size_leaf_vector":"0"}},{"base_weights":[-1.6068822E-1,2.1469738E-1,-1.464895E0,-1.2181834E0,4.4823617E-1,-1.2176934E0,-1.5175776E0,6.12602E-1,-1.2169029E0,-1.6207095E0,-1.4566981E0,8.0967844E-1,-1.3733603E-1,-1.6519585E0,-1.2112911E0,-1.5320826E0,-1.3978432E0,9.5288E-1,3.8192466E-1,2.1456893E-1,-6.393898E-1,-1.7481993E0,-1.604829E0,-1.6037865E0,-1.4761364E0,-1.3076959E0,-1.4256608E0,4.7024846E-1,1.1187584E0,-6.3465464E-1,8.509736E-1,-3.4320667E-1,7.679962E-1,-1.0519881E0,2.6997924E-2,-1.6274657E0,-1.7903973E0,-1.7098823E0,-1.5656837E0,-1.6134045E0,-1.1555316E0,-1.4837246E0,-1.1819193E0,-1.5095071E0,-1.368165E0],"categories":[],"categories_nodes":[],"categories_segments":[],"categories_sizes":[],"default_left":[true,true,true,false,true,false,true,true,false,true,true,true,true,true,false,true,true,true,true,true,true,true,true,true,true,false,true,false,false,false,false,false,false,false,false,false,false,false,false,false,false,false,false,false,false],"id":10,"left_children":[1,3,5,-1,7,-1,9,11,-1,13,15,17,19,21,-1,23,25,27,29,31,33,35,37,39,41,-1,43,-1,-1,-1,-1,-1,-1,-1,-1,-1,-1,-1,-1,-1,-1,-1,-1,-1,-1],"loss_changes":[2.1124766E4,1.1212415E4,1.2346875E2,0E0,7.8858633E3,0E0,4.7214844E1,3.8757744E3,0E0,3.5322266E1,1.977832E1,1.2715234E3,9.644343E2,9.233398E0,0E0,6.085449E0,4.9433594E0,1.2447646E3,2.4849026E3,9.909896E2,6.186172E2,1.2531738E0,4.57959E0,1.9318848E0,7.4853516E-1,0E0,7.991699E0,0E0,0E0,0E0,0E0,0E0,0E0,0E0,0E0,0E0,0E0,0E0,0E0,0E0,0E0,0E0,0E0,0E0,0E0],"parents":[2147483647,0,0,1,1,2,2,4,4,6,6,7,7,9,9,10,10,11,11,12,12,13,13,15,15,16,16,17,17,18,18,19,19,20,20,21,21,22,22,23,23,24,24,26,26],"right_children":[2,4,6,-1,8,-1,10,12,-1,14,16,18,20,22,-1,24,26,28,30,32,34,36,38,40,42,-1,44,-1,-1,-1,-1,-1,-1,-1,-1,-1,-1,-1,-1,-1,-1,-1,-1,-1,-1],"split_conditions":[1.5E0,5E-1,5E-1,-1.2181834E-1,5E-1,-1.2176935E-1,6.389401E0,3.2041683E0,-1.2169029E-1,5E-1,2.9022455E0,6.8653693E0,6.7074733E0,1.5E0,-1.2112911E-1,1.5E0,8.425297E0,8.222016E0,8.786991E0,8.254269E0,8.798983E0,8.1665E0,5.558755E0,5E-1,5E-1,-1.307696E-1,7.0514226E0,4.7024846E-2,1.1187585E-1,-6.346547E-2,8.5097365E-2,-3.4320667E-2,7.679962E-2,-1.05198815E-1,2.6997924E-3,-1.6274658E-1,-1.7903973E-1,-1.7098823E-1,-1.5656838E-1,-1.6134046E-1,-1.1555316E-1,-1.4837246E-1,-1.18191935E-1,-1.5095071E-1,-1.368165E-1],"split_indices":[6,20,20,0,23,0,4,3,0,23,3,4,4,5,0,5,2,2,2,2,2,2,4,23,23,0,4,0,0,0,0,0,0,0,0,0,0,0,0,0,0,0,0,0,0],"split_type":[0,0,0,0,0,0,0,0,0,0,0,0,0,0,0,0,0,0,0,0,0,0,0,0,0,0,0,0,0,0,0,0,0,0,0,0,0,0,0,0,0,0,0,0,0],"sum_hessian":[4.3146812E4,3.3504176E4,9.642639E3,4.6947603E3,2.8809414E4,1.6985555E3,7.9440835E3,2.6221758E4,2.5876567E3,2.938652E3,5.005431E3,2.0764977E4,5.456781E3,2.7272175E3,2.1143465E2,2.182821E3,2.8226104E3,1.5555809E4,5.2091685E3,3.208334E3,2.2484468E3,8.8394495E2,1.8432725E3,9.4377277E2,1.2390482E3,6.777747E2,2.1448357E3,3.980061E3,1.1575747E4,1.6444823E3,3.5646863E3,1.5979888E3,1.6103452E3,1.3883884E3,8.600583E2,2.3979585E2,6.441491E2,4.8810858E2,1.3551638E3,9.2118475E2,2.2587986E1,1.2036229E3,3.5425293E1,8.615065E2,1.2833292E3],"tree_param":{"num_deleted":"0","num_feature":"24","num_nodes":"45","size_leaf_vector":"0"}},{"base_weights":[-1.5637733E-1,1.9640021E-1,-1.4025356E0,-1.1931102E0,4.1294324E-1,-1.1925952E0,-1.4458479E0,6.3271344E-1,-1.239517E0,-1.4613522E0,-1.1837144E0,9.1802305E-1,1.0228101E-1,-1.3656206E0,-1.1919585E0,-1.5235631E0,-1.4008785E0,1.1521388E0,7.048893E-1,6.9382787E-1,-1.4842102E-1,-1.5807459E0,-1.4850546E0,-1.4572986E0,-1.3707831E0,1.2486806E0,1.0110741E0,7.8873724E-1,-3.6474797E-1,-7.321097E-1,9.0979016E-1,-7.6016676E-1,1.8744293E-1,-1.5056472E0,-1.3934836E0,-1.3875382E0,-1.3046004E0],"categories":[],"categories_nodes":[],"categories_segments":[],"categories_sizes":[],"default_left":[true,true,true,false,true,false,true,true,true,true,false,true,true,false,false,true,true,true,true,true,true,false,true,false,true,false,false,false,false,false,false,false,false,false,false,false,false],"id":11,"left_children":[1,3,5,-1,7,-1,9,11,13,15,-1,17,19,-1,-1,21,23,25,27,29,31,-1,33,-1,35,-1,-1,-1,-1,-1,-1,-1,-1,-1,-1,-1,-1],"loss_changes":[1.8148686E4,9.681426E3,8.0833984E1,0E0,1.0110204E4,0E0,2.8672852E1,3.7182383E3,1.7715332E1,2.4357422E1,0E0,7.962012E2,1.2747964E3,0E0,0E0,5.046875E0,3.871582E0,1.0217285E2,7.506367E2,7.8861096E2,1.2406345E3,0E0,1.5854492E0,0E0,5.6103516E-1,0E0,0E0,0E0,0E0,0E0,0E0,0E0,0E0,0E0,0E0,0E0,0E0],"parents":[2147483647,0,0,1,1,2,2,4,4,6,6,7,7,8,8,9,9,11,11,12,12,15,15,16,16,17,17,18,18,19,19,20,20,22,22,24,24],"right_children":[2,4,6,-1,8,-1,10,12,14,16,-1,18,20,-1,-1,22,24,26,28,30,32,-1,34,-1,36,-1,-1,-1,-1,-1,-1,-1,-1,-1,-1,-1,-1],"split_conditions":[1.5E0,5E-1,5E-1,-1.1931103E-1,5E-1,-1.1925953E-1,5E-1,3.0480876E0,5E-1,2.9016962E0,-1.1837144E-1,2.6038003E0,5.6511374E0,-1.3656206E-1,-1.19195856E-1,1.5E0,1.5E0,2.3442068E0,3.5E0,7.676008E0,8.414939E0,-1.580746E-1,3.5E0,-1.4572987E-1,3.5E0,1.2486806E-1,1.0110741E-1,7.8873724E-2,-3.6474798E-2,-7.321098E-2,9.097902E-2,-7.601668E-2,1.8744294E-2,-1.5056472E-1,-1.3934837E-1,-1.3875382E-1,-1.3046004E-1],"split_indices":[6,20,20,0,21,0,21,3,23,3,0,3,1,0,0,5,5,3,5,2,2,0,5,0,5,0,0,0,0,0,0,0,0,0,0,0,0],"split_type":[0,0,0,0,0,0,0,0,0,0,0,0,0,0,0,0,0,0,0,0,0,0,0,0,0,0,0,0,0,0,0,0,0,0,0,0,0],"sum_hessian":[4.128108E4,3.2173715E4,9.107362E3,4.3372886E3,2.7836428E4,1.5628524E3,7.54451E3,2.456947E4,3.266957E3,7.1185166E3,4.2599332E2,1.5975583E4,8.593887E3,8.865112E2,2.3804458E3,3.4961194E3,3.622397E3,7.610736E3,8.364848E3,2.5576309E3,6.036256E3,1.3897631E3,2.1063562E3,1.2424391E3,2.379958E3,4.513338E3,3.0973982E3,7.7571284E3,6.0771893E2,3.3603488E2,2.221596E3,2.1391047E3,3.8971511E3,1.7061433E3,4.0021292E2,1.882021E3,4.9793698E2],"tree_param":{"num_deleted":"0","num_feature":"24","num_nodes":"37","size_leaf_vector":"0"}},{"base_weights":[-1.4950274E-1,-1.1714276E0,1.33658685E-2,1.486181E-1,-1.2059373E0,6.187261E-1,-1.09398E-1,-1.3023976E0,-1.1702226E0,-1.624083E-1,7.027676E-1,-7.99243E-1,7.754249E-2,6.6575027E-1,-7.8483135E-1,8.2661223E-1,3.0943045E-1,-5.302749E-1,-1.294594E0,3.9993373E-1,-3.310266E-1,1.1206595E0,3.7801713E-1,-1.5209292E0,-4.3351483E-1,1.0806515E0,7.4047375E-1,6.99748E-1,1.3618259E-1,-1.119287E0,-3.4021586E-2,-4.67165E-1,-1.3497322E0,5.0278646E-1,-6.826684E-1,-8.093213E-1,6.925112E-2],"categories":[],"categories_nodes":[],"categories_segments":[],"categories_sizes":[],"default_left":[true,false,true,true,true,true,true,false,false,true,true,true,true,true,true,true,true,true,true,true,true,false,false,false,false,false,false,false,false,false,false,false,false,false,false,false,false],"id":12,"left_children":[1,-1,3,5,7,9,11,-1,-1,13,15,17,19,21,23,25,27,29,31,33,35,-1,-1,-1,-1,-1,-1,-1,-1,-1,-1,-1,-1,-1,-1,-1,-1],"loss_changes":[6.578718E3,0E0,5.622453E3,3.722639E3,9.956543E0,7.141133E2,2.555513E3,0E0,0E0,5.454389E2,4.7795508E2,5.620488E2,2.0538042E3,5.8859955E1,1.5535428E2,1.6241846E2,1.5894336E2,8.0076196E2,6.6983154E1,9.707604E2,1.316728E3,0E0,0E0,0E0,0E0,0E0,0E0,0E0,0E0,0E0,0E0,0E0,0E0,0E0,0E0,0E0,0E0],"parents":[2147483647,0,0,2,2,3,3,4,4,5,5,6,6,9,9,10,10,11,11,12,12,13,13,14,14,15,15,16,16,17,17,18,18,19,19,20,20],"right_children":[2,-1,4,6,8,10,12,-1,-1,14,16,18,20,22,24,26,28,30,32,34,36,-1,-1,-1,-1,-1,-1,-1,-1,-1,-1,-1,-1,-1,-1,-1,-1],"split_conditions":[5E-1,-1.1714276E-1,5E-1,6.1516676E0,5E-1,7.740882E0,8.364858E0,-1.3023977E-1,-1.1702227E-1,5.3542223E0,2.5E0,5.9977074E0,7.0188494E0,4.590044E0,7.443078E0,5E-1,5.2704287E0,8.106062E0,2.3883038E0,3.5E0,8.956609E0,1.1206595E-1,3.7801713E-2,-1.5209292E-1,-4.3351483E-2,1.0806515E-1,7.404738E-2,6.99748E-2,1.361826E-2,-1.119287E-1,-3.4021586E-3,-4.67165E-2,-1.3497321E-1,5.0278645E-2,-6.826684E-2,-8.093213E-2,6.925112E-3],"split_indices":[20,0,21,4,23,2,2,0,0,4,5,1,4,4,2,5,4,2,3,5,2,0,0,0,0,0,0,0,0,0,0,0,0,0,0,0,0],"split_type":[0,0,0,0,0,0,0,0,0,0,0,0,0,0,0,0,0,0,0,0,0,0,0,0,0,0,0,0,0,0,0,0,0,0,0,0,0],"sum_hessian":[3.952439E4,5.432486E3,3.4091906E4,3.0688695E4,3.4032095E3,1.0874406E4,1.981429E4,9.092314E2,2.4939783E3,1.0561124E3,9.818294E3,4.2240444E3,1.5590245E4,4.530634E2,6.0304913E2,7.466169E3,2.3521248E3,2.7390527E3,1.4849916E3,8.714291E3,6.875954E3,1.7428098E2,2.787824E2,1.936626E2,4.093865E2,1.8873359E3,5.578833E3,7.2196423E2,1.6301605E3,1.2518053E3,1.4872476E3,9.347957E1,1.391512E3,7.9587935E3,7.554979E2,3.1323342E3,3.74362E3],"tree_param":{"num_deleted":"0","num_feature":"24","num_nodes":"37","size_leaf_vector":"0"}},{"base_weights":[-1.3561079E-1,2.0648214E-1,-1.360167E0,-1.1523395E0,3.961354E-1,-1.1517593E0,-1.3993964E0,5.4231435E-1,-2.3705041E-1,-1.4873908E0,-1.3499943E0,6.0575145E-1,-2.2634825E-1,-1.2376819E-1,-1.2510374E0,-1.5578982E0,-1.4516157E0,-1.243522E0,-1.3730936E0,3.9396754E-1,8.241511E-1,3.0167818E-1,-6.45813E-1,1.1807151E-1,-6.3506496E-1,-1.5440238E-1,-1.3253963E0,-1.5304136E0,-1.4224615E0,-1.4386296E0,-1.3083682E0,5.971406E-1,-6.184873E-1,8.9890784E-1,-5.7883453E-1,-1.15026355E-1,5.7624876E-1,-1.2775402E0,-1.0279302E-1,-3.86144E-1,5.929806E-1,-1.0258894E0,2.5786404E-2,8.3121043E-1,-5.432829E-1,-4.9232164E-1,-1.3616123E0,-1.3368206E0,-1.4567212E0,-1.4605886E0,-1.2670709E0,-1.242937E0,-1.350041E0],"categories":[],"categories_nodes":[],"categories_segments":[],"categories_sizes":[],"default_left":[true,true,true,false,true,false,true,true,true,true,true,true,true,true,true,false,true,false,true,true,true,true,true,true,true,true,true,false,true,true,true,false,false,false,false,false,false,false,false,false,false,false,false,false,false,false,false,false,false,false,false,false,false],"id":13,"left_children":[1,3,5,-1,7,-1,9,11,13,15,17,19,21,23,25,-1,27,-1,29,31,33,35,37,39,41,43,45,-1,47,49,51,-1,-1,-1,-1,-1,-1,-1,-1,-1,-1,-1,-1,-1,-1,-1,-1,-1,-1,-1,-1,-1,-1],"loss_changes":[1.6058044E4,7.7218594E3,6.656641E1,0E0,2.433849E3,0E0,2.8308594E1,1.0418394E3,5.662567E2,3.7954102E0,9.146484E0,9.123257E2,3.6108185E2,5.488659E2,4.004895E1,0E0,1.4050293E0,0E0,1.3553711E1,2.061712E3,1.0193994E3,8.270249E1,3.1133774E2,7.2184515E2,3.682495E2,1.2948161E1,1.3136658E1,0E0,1.4321289E0,4.768799E0,3.1757812E0,0E0,0E0,0E0,0E0,0E0,0E0,0E0,0E0,0E0,0E0,0E0,0E0,0E0,0E0,0E0,0E0,0E0,0E0,0E0,0E0,0E0,0E0],"parents":[2147483647,0,0,1,1,2,2,4,4,6,6,7,7,8,8,9,9,10,10,11,11,12,12,13,13,14,14,16,16,18,18,19,19,20,20,21,21,22,22,23,23,24,24,25,25,26,26,28,28,29,29,30,30],"right_children":[2,4,6,-1,8,-1,10,12,14,16,18,20,22,24,26,-1,28,-1,30,32,34,36,38,40,42,44,46,-1,48,50,52,-1,-1,-1,-1,-1,-1,-1,-1,-1,-1,-1,-1,-1,-1,-1,-1,-1,-1,-1,-1,-1,-1],"split_conditions":[1.5E0,5E-1,5E-1,-1.1523395E-1,3.2353396E0,-1.15175925E-1,6.3359404E0,3.5E0,3.5E0,1.5E0,8.427706E0,8.642415E0,6.0509114E0,6.8548813E0,8.281704E0,-1.5578982E-1,5.50736E0,-1.2435221E-1,7.041849E0,6.6927037E0,7.8917046E0,8.326153E0,8.765614E0,8.259975E0,8.833317E0,4.9593363E0,4.718459E0,-1.5304136E-1,8.172306E0,3.5E0,8.956609E0,5.971406E-2,-6.184873E-2,8.9890786E-2,-5.7883453E-2,-1.1502636E-2,5.7624876E-2,-1.2775402E-1,-1.02793025E-2,-3.8614403E-2,5.9298065E-2,-1.02588944E-1,2.5786404E-3,8.312105E-2,-5.4328293E-2,-4.9232166E-2,-1.3616124E-1,-1.3368206E-1,-1.4567213E-1,-1.4605886E-1,-1.2670709E-1,-1.242937E-1,-1.350041E-1],"split_indices":[6,20,20,0,3,0,4,5,5,5,2,2,4,4,0,0,4,0,4,4,4,2,2,2,2,4,4,0,2,5,2,0,0,0,0,0,0,0,0,0,0,0,0,0,0,0,0,0,0,0,0,0,0],"split_type":[0,0,0,0,0,0,0,0,0,0,0,0,0,0,0,0,0,0,0,0,0,0,0,0,0,0,0,0,0,0,0,0,0,0,0,0,0,0,0,0,0,0,0,0,0,0,0,0,0,0,0,0,0],"sum_hessian":[3.8330785E4,2.9961477E4,8.369311E3,3.668919E3,2.6292557E4,1.3310348E3,7.0382754E3,2.1361326E4,4.93123E3,2.519482E3,4.5187935E3,1.9733111E4,1.6282161E3,4.436776E3,4.9445416E2,8.3280334E2,1.6866786E3,8.1613434E2,3.7026592E3,1.0019949E4,9.713162E3,7.208479E2,9.0736816E2,3.0124717E3,1.424304E3,3.1678946E1,4.6277524E2,4.4068063E2,1.2459979E3,1.8284934E3,1.8741659E3,8.345696E3,1.6742529E3,9.222196E3,4.9096527E2,2.8640286E2,4.3444504E2,4.187152E2,4.8865295E2,1.4611409E3,1.5513308E3,8.947512E2,5.2955273E2,8.568245E0,2.31107E1,2.0002993E1,4.4277225E2,3.6829282E2,8.7770514E2,1.6138322E3,2.1466125E2,7.421429E2,1.132023E3],"tree_param":{"num_deleted":"0","num_feature":"24","num_nodes":"53","size_leaf_vector":"0"}},{"base_weights":[-1.2814122E-1,1.8960738E-1,-1.3149464E0,3.7714145E-1,-1.1875241E0,-1.1350709E0,-1.3479626E0,-1.1356109E0,5.578978E-1,-1.1340263E0,-1.1983336E0,-1.421631E0,-1.3064259E0,9.0561986E-1,1.9418049E-1,-1.4450352E0,-1.1210073E0,-1.350402E0,-1.2650082E0,9.4572794E-1,-3.3180693E-1,8.0835944E-1,-3.066351E-2,-1.504558E0,-1.414356E0,-1.3585675E0,-1.1103607E0,-1.1913736E0,-1.2828867E0,5.709416E-1,1.0709475E0,-1.3755125E0,6.121502E-1,-1.9782072E-1,9.6346027E-1,-8.7122667E-1,2.1413074E-1,-1.484937E0,-1.3876307E0,-1.4035819E0,-1.3220949E0,-1.3428572E0,-1.2379792E0],"categories":[],"categories_nodes":[],"categories_segments":[],"categories_sizes":[],"default_left":[true,true,true,true,true,false,true,false,true,false,false,true,true,true,true,true,false,true,true,true,true,true,true,false,true,true,false,false,true,false,false,false,false,false,false,false,false,false,false,false,false,false,false],"id":14,"left_children":[1,3,5,7,9,-1,11,-1,13,-1,-1,15,17,19,21,23,-1,25,27,29,31,33,35,-1,37,39,-1,-1,41,-1,-1,-1,-1,-1,-1,-1,-1,-1,-1,-1,-1,-1,-1],"loss_changes":[1.3923146E4,7.52183E3,4.4529297E1,7.0098984E3,4.267578E-1,0E0,1.8010742E1,0E0,2.8957578E3,0E0,0E0,1.473584E1,5.720703E0,5.8136816E2,1.5458348E3,1.5727539E0,0E0,2.227295E0,1.1091309E0,5.31376E2,3.6365402E2,4.6840942E2,1.6863992E3,0E0,4.0771484E-1,1.0898438E0,0E0,0E0,2.790039E0,0E0,0E0,0E0,0E0,0E0,0E0,0E0,0E0,0E0,0E0,0E0,0E0,0E0,0E0],"parents":[2147483647,0,0,1,1,2,2,3,3,4,4,6,6,8,8,11,11,12,12,13,13,14,14,15,15,17,17,18,18,19,19,20,20,21,21,22,22,24,24,25,25,28,28],"right_children":[2,4,6,8,10,-1,12,-1,14,-1,-1,16,18,20,22,24,-1,26,28,30,32,34,36,-1,38,40,-1,-1,42,-1,-1,-1,-1,-1,-1,-1,-1,-1,-1,-1,-1,-1,-1],"split_conditions":[1.5E0,5E-1,5E-1,5E-1,5E-1,-1.1350709E-1,6.3359404E0,-1.13561094E-1,2.903891E0,-1.1340263E-1,-1.19833365E-1,5E-1,2.932526E0,7.853799E0,6.0438194E0,1.5E0,-1.12100735E-1,5E-1,8.373669E0,8.308076E0,9.378436E0,7.7452183E0,8.293175E0,-1.504558E-1,5.503295E0,1.5E0,-1.1103608E-1,-1.1913736E-1,7.0188494E0,5.7094164E-2,1.0709476E-1,-1.3755125E-1,6.121502E-2,-1.9782072E-2,9.634603E-2,-8.712267E-2,2.1413075E-2,-1.4849369E-1,-1.3876307E-1,-1.403582E-1,-1.322095E-1,-1.3428573E-1,-1.23797916E-1],"split_indices":[6,21,20,20,20,0,4,0,3,0,0,21,3,4,4,5,0,21,2,2,2,2,2,0,4,5,0,0,4,0,0,0,0,0,0,0,0,0,0,0,0,0,0],"split_type":[0,0,0,0,0,0,0,0,0,0,0,0,0,0,0,0,0,0,0,0,0,0,0,0,0,0,0,0,0,0,0,0,0,0,0,0,0,0,0,0,0,0,0],"sum_hessian":[3.6919113E4,2.9122717E4,7.796398E3,2.5632895E4,3.4898206E3,1.2150599E3,6.581338E3,2.7352998E3,2.2897596E4,6.059702E2,2.8838503E3,2.3600283E3,4.2213096E3,1.1705299E4,1.1192297E4,2.185725E3,1.7430327E2,2.0309187E3,2.1903909E3,1.1338119E4,3.6717987E2,2.9987705E3,8.193526E3,7.2595514E2,1.45977E3,1.9591965E3,7.172211E1,4.4223337E2,1.7481576E3,2.8410686E3,8.497051E3,1.7420988E2,1.9296997E2,4.003933E2,2.5983772E3,1.8475035E3,6.3460225E3,3.849133E2,1.0748567E3,8.5890857E2,1.100288E3,7.3521063E2,1.01294696E3],"tree_param":{"num_deleted":"0","num_feature":"24","num_nodes":"43","size_leaf_vector":"0"}},{"base_weights":[-1.2305649E-1,1.7612873E-1,-1.2768005E0,3.511035E-1,-1.1668898E0,-1.1203874E0,-1.3048627E0,-1.1209738E0,5.1849276E-1,-1.2425392E0,-1.1380306E0,-1.355294E0,-1.2612411E0,8.504709E-1,1.6692817E-1,-1.1126277E0,-1.264869E0,-1.3730569E0,-1.1084448E0,-1.1787544E0,-1.2800447E0,1.071966E0,6.155964E-1,4.5525044E-1,-3.0276486E-1,-1.3130302E0,-1.3953625E0,-1.3326724E0,-1.2403073E0,2.8881767E-1,1.1477274E0,-5.153881E-1,8.1547457E-1,-1.7202617E-1,8.064255E-1,-9.025132E-1,1.7409587E-1,-1.3769845E0,-1.2338713E0,-1.341501E0,-1.083281E0,-1.1892847E0,-1.2686377E0],"categories":[],"categories_nodes":[],"categories_segments":[],"categories_sizes":[],"default_left":[true,true,true,true,true,false,true,false,true,true,false,true,true,true,true,false,false,true,false,false,true,true,true,true,true,true,false,true,true,false,false,false,false,false,false,false,false,false,false,false,false,false,false],"id":15,"left_children":[1,3,5,7,9,-1,11,-1,13,15,-1,17,19,21,23,-1,-1,25,-1,-1,27,29,31,33,35,37,-1,39,41,-1,-1,-1,-1,-1,-1,-1,-1,-1,-1,-1,-1,-1,-1],"loss_changes":[1.2180538E4,6.5850884E3,3.0189453E1,6.1094834E3,5.3999023E0,0E0,1.1568359E1,0E0,2.59792E3,9.07959E-1,0E0,1.0682129E1,3.3876953E0,5.9480176E2,1.4644995E3,0E0,0E0,1.4384766E0,0E0,0E0,3.709961E0,3.4904443E2,1.2571936E3,1.4762655E3,1.1766486E3,1.7591553E0,0E0,8.178711E-1,4.8120117E-1,0E0,0E0,0E0,0E0,0E0,0E0,0E0,0E0,0E0,0E0,0E0,0E0,0E0,0E0],"parents":[2147483647,0,0,1,1,2,2,3,3,4,4,6,6,8,8,9,9,11,11,12,12,13,13,14,14,17,17,20,20,21,21,22,22,23,23,24,24,25,25,27,27,28,28],"right_children":[2,4,6,8,10,-1,12,-1,14,16,-1,18,20,22,24,-1,-1,26,-1,-1,28,30,32,34,36,38,-1,40,42,-1,-1,-1,-1,-1,-1,-1,-1,-1,-1,-1,-1,-1,-1],"split_conditions":[1.5E0,5E-1,5E-1,5E-1,5E-1,-1.1203875E-1,6.5359664E0,-1.1209738E-1,2.9180408E0,5E-1,-1.1380307E-1,5E-1,8.513887E0,6.3447585E0,6.7782154E0,-1.11262776E-1,-1.264869E-1,8.175548E0,-1.10844485E-1,-1.1787545E-1,7.053153E0,7.777792E0,8.392424E0,8.18214E0,8.730206E0,5.884713E0,-1.3953625E-1,5E-1,8.956609E0,2.8881768E-2,1.1477274E-1,-5.1538806E-2,8.154746E-2,-1.7202618E-2,8.064255E-2,-9.025132E-2,1.7409587E-2,-1.3769846E-1,-1.23387136E-1,-1.341501E-1,-1.08328104E-1,-1.1892847E-1,-1.2686376E-1],"split_indices":[6,21,20,20,23,0,4,0,3,20,0,21,2,4,4,0,0,2,0,0,4,2,2,2,2,4,0,21,2,0,0,0,0,0,0,0,0,0,0,0,0,0,0],"split_type":[0,0,0,0,0,0,0,0,0,0,0,0,0,0,0,0,0,0,0,0,0,0,0,0,0,0,0,0,0,0,0,0,0,0,0,0,0,0,0,0,0,0,0],"sum_hessian":[3.5285207E4,2.8019928E4,7.2652773E3,2.479087E4,3.2290583E3,1.1119528E3,6.1533247E3,2.5305005E3,2.226037E4,8.7910754E2,2.349951E3,2.8388958E3,3.314429E3,1.1448235E4,1.0812134E4,1.3705402E2,7.420535E2,2.6436921E3,1.9520377E2,6.2810516E2,2.6863237E3,5.8898774E3,5.5583574E3,6.699731E3,4.112403E3,7.3366473E2,1.9100273E3,1.1406306E3,1.5456932E3,5.20066E2,5.3698115E3,8.344803E2,4.7238774E3,2.4046743E3,4.2950566E3,1.8211975E3,2.2912053E3,3.9603793E2,3.3762683E2,1.0970154E3,4.361524E1,5.684421E2,9.7725116E2],"tree_param":{"num_deleted":"0","num_feature":"24","num_nodes":"43","size_leaf_vector":"0"}},{"base_weights":[-1.1861632E-1,1.65495E-1,-1.2437998E0,-1.1081289E0,3.1513244E-1,-1.1074321E0,-1.2679753E0,4.295878E-1,-1.1263248E0,-1.3114936E0,-1.2311908E0,5.5858535E-1,-3.340259E-1,-1.3234377E0,-1.0966648E0,-1.1598047E0,-1.2474414E0,6.824578E-1,-5.6971144E-2,3.4193054E-1,-5.7728714E-1,-1.3658317E0,-1.3004227E0,-1.2917547E0,-1.2125175E0,3.6450568E-1,9.570502E-1,-7.9791856E-1,5.7821196E-1,-5.8140624E-1,6.051027E-1,-1.8672606E-1,-8.571111E-1,-1.3056862E0,-1.172163E0],"categories":[],"categories_nodes":[],"categories_segments":[],"categories_sizes":[],"default_left":[true,true,true,false,true,false,true,true,false,true,true,true,true,true,false,false,true,true,true,true,true,false,false,true,false,false,false,false,false,false,false,false,false,true,true],"id":16,"left_children":[1,3,5,-1,7,-1,9,11,-1,13,15,17,19,21,-1,-1,23,25,27,29,31,-1,-1,-1,-1,-1,-1,-1,-1,-1,-1,-1,-1,-1,-1],"loss_changes":[1.0727562E4,5.106408E3,2.0661133E1,0E0,3.9560916E3,0E0,7.3183594E0,2.1883237E3,0E0,5.0092773E0,1.9404297E0,1.4491406E3,5.281738E2,3.6669922E-1,0E0,0E0,2.1037598E0,1.3807456E3,1.4991656E3,2.0695096E2,2.5782257E2,0E0,0E0,5.444336E-2,0E0,0E0,0E0,0E0,0E0,0E0,0E0,0E0,0E0,0E0,0E0],"parents":[2147483647,0,0,1,1,2,2,4,4,6,6,7,7,9,9,10,10,11,11,12,12,13,13,16,16,17,17,18,18,19,19,20,20,23,23],"right_children":[2,4,6,-1,8,-1,10,12,-1,14,16,18,20,22,-1,-1,24,26,28,30,32,-1,-1,-1,-1,-1,-1,-1,-1,-1,-1,-1,-1,-1,-1],"split_conditions":[1.5E0,5E-1,5E-1,-1.10812895E-1,5E-1,-1.1074322E-1,6.5257626E0,3.3063369E0,-1.12632476E-1,5E-1,8.513887E0,7.1689653E0,5.5796733E0,1.5E0,-1.0966648E-1,-1.1598047E-1,7.0540175E0,8.491773E0,9.010974E0,7.7821813E0,1.5E0,-1.3658318E-1,-1.3004227E-1,-1.2917547E-1,-1.21251754E-1,3.645057E-2,9.5705025E-2,-7.979186E-2,5.7821196E-2,-5.8140624E-2,6.0510274E-2,-1.8672606E-2,-8.5711114E-2,-1.3056862E-1,-1.17216304E-1],"split_indices":[6,20,20,0,23,0,4,3,0,23,2,4,1,5,0,0,4,2,2,2,5,0,0,5,0,0,0,0,0,0,0,0,0,2147483647,2147483647],"split_type":[0,0,0,0,0,0,0,0,0,0,0,0,0,0,0,0,0,0,0,0,0,0,0,0,0,0,0,0,0,0,0,0,0,0,0],"sum_hessian":[3.355548E4,2.6791365E4,6.7641147E3,2.8160205E3,2.3975346E4,1.0262483E3,5.7378667E3,2.2212396E4,1.7629492E3,2.6112366E3,3.12663E3,1.9002668E4,3.209728E3,2.468374E3,1.428627E2,5.9433545E2,2.5322944E3,1.5819301E4,3.183368E3,8.492045E2,2.3605237E3,8.464693E2,1.6219047E3,1.098987E3,1.4333075E3,7.3321055E3,8.487195E3,1.4693074E3,1.7140604E3,1.8800429E2,6.6120026E2,9.861461E2,1.3743774E3,9.7468915E2,1.2429788E2],"tree_param":{"num_deleted":"2","num_feature":"24","num_nodes":"35","size_leaf_vector":"0"}},{"base_weights":[-1.1417648E-1,1.5113594E-1,-1.215838E0,3.080931E-1,-1.1462337E0,-1.2557801E0,-1.1923251E0,6.8890667E-1,4.774872E-2,-1.2301557E0,-1.1098747E0,-1.2693728E0,-1.086051E0,-1.2322974E0,-1.1687887E0,7.5021726E-1,7.6065846E-3,1.6116193E-1,-9.5222425E-1,-1.2943168E0,-1.2245617E0,7.822623E-1,-5.125472E-1,4.132155E-1,-3.5330665E-1,4.846216E-1,-1.3038757E-1,-4.5964982E-2,-1.0640348E0,6.004374E-1,1.0022976E0,-1.2038184E0,6.527178E-1,-8.28516E-2,5.798825E-1,-1.0960805E0,1.3923466E-1,-1.5545279E-1,7.908703E-1,-8.026576E-1,2.5716972E-1,2.3193613E-1,-1.074238E0,-1.1384064E0,-3.1507927E-1],"categories":[],"categories_nodes":[],"categories_segments":[],"categories_sizes":[],"default_left":[true,true,true,true,true,true,true,true,true,false,false,true,false,false,false,true,true,true,true,false,false,true,true,true,true,true,true,true,true,false,false,false,false,false,false,false,false,false,false,false,false,false,false,false,false],"id":17,"left_children":[1,3,5,7,9,11,13,15,17,-1,-1,19,-1,-1,-1,21,23,25,27,-1,-1,29,31,33,35,37,39,41,43,-1,-1,-1,-1,-1,-1,-1,-1,-1,-1,-1,-1,-1,-1,-1,-1],"loss_changes":[9.402807E3,5.2796714E3,4.1220703E0,2.2929688E3,6.938965E0,3.6765137E0,2.0371094E0,3.9220605E2,1.5581765E3,0E0,0E0,5.2905273E-1,0E0,0E0,0E0,3.4907275E2,1.1382459E2,1.1638286E3,1.4165247E2,0E0,0E0,3.354297E2,1.7302774E2,3.0374939E1,1.5072157E2,1.1469739E3,1.6914019E3,4.4582176E1,6.88811E1,0E0,0E0,0E0,0E0,0E0,0E0,0E0,0E0,0E0,0E0,0E0,0E0,0E0,0E0,0E0,0E0],"parents":[2147483647,0,0,1,1,2,2,3,3,4,4,5,5,6,6,7,7,8,8,11,11,15,15,16,16,17,17,18,18,21,21,22,22,23,23,24,24,25,25,26,26,27,27,28,28],"right_children":[2,4,6,8,10,12,14,16,18,-1,-1,20,-1,-1,-1,22,24,26,28,-1,-1,30,32,34,36,38,40,42,44,-1,-1,-1,-1,-1,-1,-1,-1,-1,-1,-1,-1,-1,-1,-1,-1],"split_conditions":[1.5E0,5E-1,6.346513E0,2.802451E0,5E-1,5E-1,1.5E0,3.5E0,3.5E0,-1.23015575E-1,-1.1098748E-1,2.5E0,-1.086051E-1,-1.2322974E-1,-1.1687887E-1,8.016813E0,6.0366764E0,6.503539E0,5.2704287E0,-1.2943168E-1,-1.2245617E-1,8.725346E0,9.626883E0,8.081009E0,8.765614E0,8.097275E0,8.560827E0,3.3975232E0,9.17222E0,6.004374E-2,1.0022976E-1,-1.2038185E-1,6.527179E-2,-8.28516E-3,5.7988252E-2,-1.09608054E-1,1.3923466E-2,-1.5545279E-2,7.9087034E-2,-8.026576E-2,2.5716973E-2,2.3193613E-2,-1.074238E-1,-1.1384064E-1,-3.1507928E-2],"split_indices":[6,21,4,3,23,21,5,5,5,0,0,5,0,0,0,4,4,4,4,0,0,2,2,2,2,2,2,3,2,0,0,0,0,0,0,0,0,0,0,0,0,0,0,0,0],"split_type":[0,0,0,0,0,0,0,0,0,0,0,0,0,0,0,0,0,0,0,0,0,0,0,0,0,0,0,0,0,0,0,0,0,0,0,0,0,0,0,0,0,0,0,0,0],"sum_hessian":[3.2168057E4,2.5925264E4,6.242792E3,2.3128047E4,2.797216E3,2.292239E3,3.9505532E3,9.390398E3,1.3737649E4,8.3479504E2,1.962421E3,2.1157327E3,1.7650627E2,1.4434695E3,2.5070837E3,8.614891E3,7.755073E2,1.233913E4,1.3985193E3,1.3398126E3,7.759201E2,8.402131E3,2.1276021E2,3.652061E2,4.1030124E2,5.849302E3,6.4898286E3,1.5384697E2,1.2446724E3,4.6028096E3,3.799321E3,1.335732E2,7.918702E1,9.181906E1,2.7338702E2,1.631865E2,2.4711473E2,1.8930023E3,3.956299E3,2.3729011E3,4.1169277E3,1.2164766E2,3.219931E1,1.1316459E3,1.1302643E2],"tree_param":{"num_deleted":"0","num_feature":"24","num_nodes":"45","size_leaf_vector":"0"}},{"base_weights":[-1.06654994E-1,1.41036E-1,-1.1919713E0,2.3680459E-1,-1.0982349E0,-1.2270662E0,-1.1716826E0,3.672698E-1,-3.4523335E-1,-1.2362506E0,-1.0757632E0,-1.2061896E0,-1.1513072E0,4.4477427E-1,-4.1363478E-1,2.4805412E-1,-5.493019E-1,5.184972E-1,-2.6134196E-1,5.9923597E-2,-7.4560946E-1,-8.8760734E-1,3.9467886E-1,-1.647522E-1,-8.033656E-1,2.5318378E-1,7.792807E-1,-1.0344046E0,5.1314837E-1,-1.8878669E-1,4.5790008E-1,-1.2172518E0,-3.207003E-1,1.651029E-1,-1.3237671E0,5.5798936E-1,-1.9345503E-1,-7.2793764E-1,1.8061706E-1,-5.6052274E-1,-1.0377573E0],"categories":[],"categories_nodes":[],"categories_segments":[],"categories_sizes":[],"default_left":[true,true,true,true,false,true,true,true,true,false,false,false,false,true,true,true,true,true,true,true,true,true,true,true,true,false,false,false,false,false,false,false,false,false,false,false,false,false,false,false,false],"id":18,"left_children":[1,3,5,7,-1,9,11,13,15,-1,-1,-1,-1,17,19,21,23,25,27,29,31,33,35,37,39,-1,-1,-1,-1,-1,-1,-1,-1,-1,-1,-1,-1,-1,-1,-1,-1],"loss_changes":[8.31773E3,2.9900366E3,2.416504E0,1.7759401E3,0E0,1.3337402E0,9.5410156E-1,1.1564438E3,5.1865344E2,0E0,0E0,0E0,0E0,9.049075E2,2.713456E2,1.8290067E2,3.1113184E2,1.0885581E3,9.8463556E2,7.0570496E1,2.0276038E2,5.801316E1,9.350038E1,2.4707024E2,1.0846716E2,0E0,0E0,0E0,0E0,0E0,0E0,0E0,0E0,0E0,0E0,0E0,0E0,0E0,0E0,0E0,0E0],"parents":[2147483647,0,0,1,1,2,2,3,3,5,5,6,6,7,7,8,8,13,13,14,14,15,15,16,16,17,17,18,18,19,19,20,20,21,21,22,22,23,23,24,24],"right_children":[2,4,6,8,-1,10,12,14,16,-1,-1,-1,-1,18,20,22,24,26,28,30,32,34,36,38,40,-1,-1,-1,-1,-1,-1,-1,-1,-1,-1,-1,-1,-1,-1,-1,-1],"split_conditions":[1.5E0,5E-1,6.3359404E0,3.2693787E0,-1.0982349E-1,5E-1,1.5E0,3.5E0,5.5791826E0,-1.2362506E-1,-1.07576326E-1,-1.2061896E-1,-1.1513072E-1,7.4280357E0,6.0602903E0,7.5598197E0,1.5E0,8.519491E0,9.130754E0,8.565412E0,8.768419E0,5.2443857E0,6.7940264E0,5E-1,6.1681137E0,2.5318379E-2,7.792807E-2,-1.0344046E-1,5.131484E-2,-1.8878669E-2,4.579001E-2,-1.2172518E-1,-3.207003E-2,1.6510291E-2,-1.3237672E-1,5.5798937E-2,-1.9345503E-2,-7.279377E-2,1.8061707E-2,-5.6052275E-2,-1.0377573E-1],"split_indices":[6,23,4,3,0,23,5,5,1,0,0,0,0,4,4,2,5,2,2,2,2,4,4,22,1,0,0,0,0,0,0,0,0,0,0,0,0,0,0,0,0],"split_type":[0,0,0,0,0,0,0,0,0,0,0,0,0,0,0,0,0,0,0,0,0,0,0,0,0,0,0,0,0,0,0,0,0,0,0,0,0,0,0,0,0],"sum_hessian":[3.0939264E4,2.5190959E4,5.7483057E3,2.338472E4,1.8062386E3,2.0821875E3,3.6661182E3,1.9103227E4,4.2814937E3,1.955642E3,1.2654539E2,1.3376335E3,2.3284846E3,1.7378934E4,1.7242937E3,1.0955886E3,3.1859048E3,1.5736365E4,1.6425677E3,7.108261E2,1.01346765E3,1.2462073E2,9.709679E2,1.2682814E3,1.9176234E3,7.8016E3,7.9347646E3,8.219382E2,8.206296E2,4.376172E2,2.732089E2,4.7932474E2,5.341429E2,3.6622135E1,8.799859E1,7.601218E2,2.1084607E2,4.8180133E2,7.864801E2,9.437078E2,9.739156E2],"tree_param":{"num_deleted":"0","num_feature":"24","num_nodes":"41","size_leaf_vector":"0"}},{"base_weights":[-1.001983E-1,1.3041876E-1,-1.1713762E0,-1.0974773E0,2.7264273E-1,-1.0751115E0,-1.1871412E0,3.6157596E-1,-1.0901488E0,-1.1910115E0,-1.0667067E0,5.6704664E-1,7.1054346E-5,-1.2097371E0,-1.1632638E0,-3.9920285E-2,7.740236E-1,-5.671495E-1,5.3506833E-1,4.986229E-1,-6.9701326E-1,8.32369E-1,-4.7055524E-2,-3.460145E-1,-1.1471245E0,7.9354286E-1,1.5263005E-1],"categories":[],"categories_nodes":[],"categories_segments":[],"categories_sizes":[],"default_left":[true,true,true,false,true,false,true,true,false,true,false,true,true,false,false,true,true,true,true,false,false,false,false,false,false,false,false],"id":19,"left_children":[1,3,5,-1,7,-1,9,11,-1,13,-1,15,17,-1,-1,19,21,23,25,-1,-1,-1,-1,-1,-1,-1,-1],"loss_changes":[7.394203E3,4.301431E3,6.5444336E0,0E0,2.6756084E3,0E0,6.230469E-1,1.5391721E3,0E0,6.3916016E-1,0E0,1.65996E3,2.279573E3,0E0,0E0,1.1895958E3,4.7212988E2,4.6707117E2,3.819259E2,0E0,0E0,0E0,0E0,0E0,0E0,0E0,0E0],"parents":[2147483647,0,0,1,1,2,2,4,4,6,6,7,7,9,9,11,11,12,12,15,15,16,16,17,17,18,18],"right_children":[2,4,6,-1,8,-1,10,12,-1,14,-1,16,18,-1,-1,20,22,24,26,-1,-1,-1,-1,-1,-1,-1,-1],"split_conditions":[1.5E0,5E-1,5E-1,-1.0974773E-1,5E-1,-1.07511155E-1,5E-1,6.1917696E0,-1.0901488E-1,2.9829001E0,-1.0667067E-1,8.097275E0,8.845417E0,-1.20973706E-1,-1.16326384E-1,5.5386133E0,3.4267025E0,6.5534706E0,6.688118E0,4.986229E-2,-6.970133E-2,8.32369E-2,-4.7055525E-3,-3.460145E-2,-1.14712454E-1,7.9354286E-2,1.5263005E-2],"split_indices":[6,20,20,0,23,0,23,1,0,3,0,2,2,0,0,1,3,1,1,0,0,0,0,0,0,0,0],"split_type":[0,0,0,0,0,0,0,0,0,0,0,0,0,0,0,0,0,0,0,0,0,0,0,0,0,0,0],"sum_hessian":[2.9930135E4,2.4628564E4,5.3015713E3,2.5557734E3,2.2072791E4,7.566695E2,4.544902E3,2.0721361E4,1.3514292E3,4.3939736E3,1.5092822E2,1.3211448E4,7.5099136E3,2.5959204E3,1.7980532E3,3.3596084E3,9.85184E3,3.6450608E3,3.8648528E3,1.8464092E3,1.5131992E3,9.19832E3,6.535196E2,2.6401743E3,1.0048864E3,2.305394E3,1.5594587E3],"tree_param":{"num_deleted":"0","num_feature":"24","num_nodes":"27","size_leaf_vector":"0"}},{"base_weights":[-9.560031E-2,1.199852E-1,-1.1524227E0,2.5207746E-1,-1.1313313E0,-1.0671632E0,-1.1663053E0,-1.0900975E0,3.8684523E-1,-1.228748E0,-1.0786581E0,-1.1808778E0,-1.1283604E0,8.2266146E-1,1.2770422E-1,-1.0661904E0,-1.2489661E0,-1.187292E0,-1.0578213E0,-4.5144696E-2,9.533551E-1,-5.705029E-1,4.1103464E-1,6.897582E-1,-8.834454E-1,1.0363433E0,2.2700302E-1,-1.277309E-1,-1.0296199E0,7.5057286E-1,-1.8502761E-1],"categories":[],"categories_nodes":[],"categories_segments":[],"categories_sizes":[],"default_left":[true,true,true,true,true,false,true,false,true,true,false,true,false,true,true,false,false,false,false,true,true,true,true,false,false,false,false,false,false,false,false],"id":20,"left_children":[1,3,5,7,9,-1,11,-1,13,15,-1,17,-1,19,21,-1,-1,-1,-1,23,25,27,29,-1,-1,-1,-1,-1,-1,-1,-1],"loss_changes":[6.5525757E3,3.9484932E3,4.2998047E0,3.9087146E3,1.0147949E1,0E0,7.475586E-1,0E0,2.2174983E3,1.0418701E0,0E0,8.8378906E-1,0E0,8.3055566E2,2.4365288E3,0E0,0E0,0E0,0E0,5.9157074E2,3.8323096E2,7.2249536E2,1.7733505E3,0E0,0E0,0E0,0E0,0E0,0E0,0E0,0E0],"parents":[2147483647,0,0,1,1,2,2,3,3,4,4,6,6,8,8,9,9,11,11,13,13,14,14,19,19,20,20,21,21,22,22],"right_children":[2,4,6,8,10,-1,12,-1,14,16,-1,18,-1,20,22,-1,-1,-1,-1,24,26,28,30,-1,-1,-1,-1,-1,-1,-1,-1],"split_conditions":[1.5E0,5E-1,5E-1,5E-1,5E-1,-1.0671633E-1,7.0206375E0,-1.0900976E-1,6.199494E0,5E-1,-1.0786581E-1,5E-1,-1.1283604E-1,7.7748556E0,8.445375E0,-1.0661904E-1,-1.2489661E-1,-1.187292E-1,-1.0578213E-1,5.581613E0,3.5E0,5.9107695E0,7.196312E0,6.897582E-2,-8.834454E-2,1.03634335E-1,2.2700302E-2,-1.2773091E-2,-1.02961995E-1,7.505729E-2,-1.8502763E-2],"split_indices":[6,21,20,20,23,0,4,0,4,20,0,21,0,2,2,0,0,0,0,4,5,1,4,0,0,0,0,0,0,0,0],"split_type":[0,0,0,0,0,0,0,0,0,0,0,0,0,0,0,0,0,0,0,0,0,0,0,0,0,0,0,0,0,0,0],"sum_hessian":[2.8758045E4,2.3886195E4,4.8718506E3,2.160626E4,2.279935E3,6.941072E2,4.1777437E3,1.9708092E3,1.9635451E4,7.9162946E2,1.4883055E3,2.99484E3,1.1829033E3,7.3208633E3,1.2314588E4,9.405883E1,6.975706E2,2.8374785E3,1.5736153E2,9.58213E2,6.3626504E3,3.554332E3,8.760256E3,5.106263E2,4.4758667E2,5.7097295E3,6.529209E2,1.8101354E3,1.7441967E3,5.581018E3,3.1792375E3],"tree_param":{"num_deleted":"0","num_feature":"24","num_nodes":"31","size_leaf_vector":"0"}},{"base_weights":[-8.818631E-2,1.15113005E-1,-1.1360344E0,-1.0782177E0,2.3712483E-1,-1.0600471E0,-1.1483002E0,3.11183E-1,-1.0722313E0,-1.1610708E0,-1.1146923E0,7.1982193E-1,1.2149982E-1,7.481132E-1,-7.9363334E-1,6.4787173E-1,-4.1616227E-2,9.0406376E-1,5.9246397E-1,-1.6872382E0,2.22875E-1,-8.4951806E-1,7.29913E-1,-9.1460395E-1,1.2972999E-1],"categories":[],"categories_nodes":[],"categories_segments":[],"categories_sizes":[],"default_left":[true,true,true,false,true,false,true,true,false,false,false,true,true,true,true,true,true,false,false,false,false,false,false,false,false],"id":21,"left_children":[1,3,5,-1,7,-1,9,11,-1,-1,-1,13,15,17,19,21,23,-1,-1,-1,-1,-1,-1,-1,-1],"loss_changes":[5.838689E3,3.3423687E3,2.7128906E0,0E0,2.0197434E3,0E0,1.1816406E-1,1.5277559E3,0E0,0E0,0E0,2.6815112E2,1.1561263E3,1.4822803E2,1.0506366E2,3.919425E2,1.5378745E3,0E0,0E0,0E0,0E0,0E0,0E0,0E0,0E0],"parents":[2147483647,0,0,1,1,2,2,4,4,6,6,7,7,11,11,12,12,13,13,14,14,15,15,16,16],"right_children":[2,4,6,-1,8,-1,10,12,-1,-1,-1,14,16,18,20,22,24,-1,-1,-1,-1,-1,-1,-1,-1],"split_conditions":[1.5E0,5E-1,5E-1,-1.0782178E-1,5E-1,-1.06004715E-1,7.0242043E0,2.6793077E0,-1.0722313E-1,-1.16107084E-1,-1.1146923E-1,8.261656E0,5.972536E0,2.3528028E0,9.640592E0,7.4573197E0,8.16962E0,9.040638E-2,5.92464E-2,-1.6872382E-1,2.2287501E-2,-8.495181E-2,7.2991304E-2,-9.14604E-2,1.2972998E-2],"split_indices":[6,20,20,0,23,0,4,3,0,0,0,4,4,3,2,2,2,0,0,0,0,0,0,0,0],"split_type":[0,0,0,0,0,0,0,0,0,0,0,0,0,0,0,0,0,0,0,0,0,0,0,0,0],"sum_hessian":[2.7406143E4,2.2953576E4,4.452567E3,2.1283818E3,2.0825193E4,6.3211884E2,3.820448E3,1.9711154E4,1.1140393E3,2.7419878E3,1.0784601E3,6.24788E3,1.3463275E4,6.1337915E3,1.1408825E2,3.1845247E3,1.027875E4,3.0612075E3,3.072584E3,6.0415756E1,5.3672493E1,1.6486626E2,3.0196584E3,1.6858417E3,8.592909E3],"tree_param":{"num_deleted":"0","num_feature":"24","num_nodes":"25","size_leaf_vector":"0"}},{"base_weights":[-8.248604E-2,1.0839051E-1,-1.1215336E0,2.2927445E-1,-1.1212884E0,-1.0536605E0,-1.1323899E0,-1.0723196E0,3.439002E-1,-1.2157055E0,-1.063162E0,6.7223984E-1,4.071805E-2,-1.0489981E0,-1.2338552E0,-7.407208E-2,8.5567355E-1,-3.988552E-1,5.045639E-1,6.422796E-1,-8.0493444E-1,1.074434E0,5.523166E-1,-6.3825674E-2,-9.773354E-1,8.1736773E-1,-4.3286932E-1],"categories":[],"categories_nodes":[],"categories_segments":[],"categories_sizes":[],"default_left":[true,true,true,true,true,false,false,false,true,true,false,true,true,false,false,true,true,true,true,false,false,false,false,false,false,false,false],"id":22,"left_children":[1,3,5,7,9,-1,-1,-1,11,13,-1,15,17,-1,-1,19,21,23,25,-1,-1,-1,-1,-1,-1,-1,-1],"loss_changes":[5.2199917E3,3.3053618E3,1.5976562E0,3.0208774E3,9.402344E0,0E0,0E0,0E0,1.8522554E3,7.4902344E-1,0E0,1.2230698E3,1.9730521E3,0E0,0E0,9.23697E2,4.7511768E2,9.6273553E2,1.3810698E3,0E0,0E0,0E0,0E0,0E0,0E0,0E0,0E0],"parents":[2147483647,0,0,1,1,2,2,3,3,4,4,8,8,9,9,11,11,12,12,15,15,16,16,17,17,18,18],"right_children":[2,4,6,8,10,-1,-1,-1,12,14,-1,16,18,-1,-1,20,22,24,26,-1,-1,-1,-1,-1,-1,-1,-1],"split_conditions":[1.5E0,5E-1,5E-1,5E-1,5E-1,-1.0536605E-1,-1.1323899E-1,-1.0723197E-1,6.4606867E0,5E-1,-1.063162E-1,7.930026E0,8.791105E0,-1.04899816E-1,-1.23385526E-1,5.71208E0,5.90528E0,6.236027E0,7.5707006E0,6.422796E-2,-8.049344E-2,1.0744341E-1,5.523166E-2,-6.3825673E-3,-9.773354E-2,8.173677E-2,-4.328693E-2],"split_indices":[6,21,20,20,23,0,0,0,4,20,0,2,2,0,0,4,1,1,4,0,0,0,0,0,0,0,0],"split_type":[0,0,0,0,0,0,0,0,0,0,0,0,0,0,0,0,0,0,0,0,0,0,0,0,0,0,0],"sum_hessian":[2.6317625E4,2.223397E4,4.0836558E3,2.0244703E4,1.9892665E3,5.77898E2,3.5057578E3,1.6378152E3,1.8606889E4,7.4976337E2,1.2395032E3,8.932087E3,9.674802E3,7.992744E1,6.6983594E2,1.7622621E3,7.1698247E3,4.967331E3,4.7074707E3,8.8995795E2,8.7230414E2,4.1640923E3,3.0057322E3,3.1463757E3,1.8209552E3,3.5298584E3,1.1776125E3],"tree_param":{"num_deleted":"0","num_feature":"24","num_nodes":"27","size_leaf_vector":"0"}},{"base_weights":[-8.175817E-2,9.7300254E-2,-1.1088703E0,2.0938455E-1,-1.1083308E0,-1.0478939E0,-1.1184367E0,-1.0648519E0,3.1452748E-1,-1.1909298E0,-1.0566186E0,5.3822047E-1,-2.681932E-2,-1.041092E0,-1.2062835E0,3.4785535E-2,8.129179E-1,-4.7734267E-1,5.2524793E-1,4.4150788E-1,-5.908024E-1,9.4634444E-1,6.489138E-1,-9.5144373E-1,-2.0890193E-1,8.0732304E-1,1.6786435E-1],"categories":[],"categories_nodes":[],"categories_segments":[],"categories_sizes":[],"default_left":[true,true,true,true,true,false,false,false,true,true,false,true,true,false,false,true,true,true,true,false,false,false,false,false,false,false,false],"id":23,"left_children":[1,3,5,7,9,-1,-1,-1,11,13,-1,15,17,-1,-1,19,21,23,25,-1,-1,-1,-1,-1,-1,-1,-1],"loss_changes":[4.6218145E3,2.8919243E3,7.8759766E-1,2.6235703E3,6.2922363E0,0E0,0E0,0E0,1.3812582E3,1.1199951E-1,0E0,1.5111147E3,1.7815403E3,0E0,0E0,9.821102E2,1.5393262E2,5.0166107E2,3.2423376E2,0E0,0E0,0E0,0E0,0E0,0E0,0E0,0E0],"parents":[2147483647,0,0,1,1,2,2,3,3,4,4,8,8,9,9,11,11,12,12,15,15,16,16,17,17,18,18],"right_children":[2,4,6,8,10,-1,-1,-1,12,14,-1,16,18,-1,-1,20,22,24,26,-1,-1,-1,-1,-1,-1,-1,-1],"split_conditions":[1.5E0,5E-1,5E-1,5E-1,5E-1,-1.0478939E-1,-1.1184367E-1,-1.0648519E-1,6.1675687E0,5E-1,-1.0566186E-1,8.18214E0,8.888757E0,-1.04109205E-1,-1.2062835E-1,5.650751E0,9.221625E0,8.517293E0,1.0233726E1,4.415079E-2,-5.908024E-2,9.463444E-2,6.489138E-2,-9.5144376E-2,-2.0890193E-2,8.073231E-2,1.6786436E-2],"split_indices":[6,21,20,20,23,0,0,0,1,20,0,2,2,0,0,1,0,2,0,0,0,0,0,0,0,0,0],"split_type":[0,0,0,0,0,0,0,0,0,0,0,0,0,0,0,0,0,0,0,0,0,0,0,0,0,0,0],"sum_hessian":[2.5128293E4,2.1398637E4,3.7296575E3,1.9579309E4,1.8193268E3,5.221925E2,3.2074648E3,1.491661E3,1.8087648E4,6.912472E2,1.1280796E3,1.0926778E4,7.16087E3,7.1248436E1,6.199987E2,3.857914E3,7.0688643E3,3.9432412E3,3.2176287E3,2.3382007E3,1.5197134E3,3.894826E3,3.174038E3,1.4244902E3,2.518751E3,1.797423E3,1.4202057E3],"tree_param":{"num_deleted":"0","num_feature":"24","num_nodes":"27","size_leaf_vector":"0"}},{"base_weights":[-7.551143E-2,9.360534E-2,-1.097521E0,1.9749309E-1,-1.0966789E0,-1.0427215E0,-1.1060292E0,-1.0581261E0,2.9363334E-1,-1.169715E0,-1.0507429E0,7.6628506E-1,9.332914E-2,-1.3337377E-1,8.837647E-1,-6.830015E-1,2.8249335E-1,6.499337E-1,-7.900446E-1,9.869787E-1,9.702349E-2,-3.1773838E-1,-1.1842958E0,6.538877E-1,-1.6554044E-1],"categories":[],"categories_nodes":[],"categories_segments":[],"categories_sizes":[],"default_left":[true,true,true,true,true,false,false,false,true,false,false,true,true,true,true,true,true,false,false,false,false,false,false,false,false],"id":24,"left_children":[1,3,5,7,9,-1,-1,-1,11,-1,-1,13,15,17,19,21,23,-1,-1,-1,-1,-1,-1,-1,-1],"loss_changes":[4.1736343E3,2.5621396E3,2.3046875E-1,2.3006653E3,4.1290283E0,0E0,0E0,0E0,1.6757767E3,0E0,0E0,5.570525E2,1.8261956E3,3.1394077E2,3.7823438E2,4.4558813E2,1.6639656E3,0E0,0E0,0E0,0E0,0E0,0E0,0E0,0E0],"parents":[2147483647,0,0,1,1,2,2,3,3,4,4,8,8,11,11,12,12,13,13,14,14,15,15,16,16],"right_children":[2,4,6,8,10,-1,-1,-1,12,-1,-1,14,16,18,20,22,24,-1,-1,-1,-1,-1,-1,-1,-1],"split_conditions":[1.5E0,5E-1,5E-1,5E-1,5E-1,-1.0427215E-1,-1.10602915E-1,-1.0581261E-1,6.076494E0,-1.1697151E-1,-1.0507429E-1,7.6794825E0,8.285513E0,5.358939E0,3.5E0,5.86356E0,6.987028E0,6.4993374E-2,-7.900446E-2,9.869787E-2,9.702349E-3,-3.177384E-2,-1.1842958E-1,6.538877E-2,-1.6554045E-2],"split_indices":[6,21,20,20,23,0,0,0,4,0,0,2,2,4,5,1,4,0,0,0,0,0,0,0,0],"split_type":[0,0,0,0,0,0,0,0,0,0,0,0,0,0,0,0,0,0,0,0,0,0,0,0,0],"sum_hessian":[2.4145357E4,2.071788E4,3.4274758E3,1.9055629E4,1.6622532E3,4.7881882E2,2.948657E3,1.3544945E3,1.7701135E4,6.315216E2,1.0307314E3,5.267723E3,1.2433411E4,6.083087E2,4.659414E3,2.4353962E3,9.998015E3,2.773412E2,3.309675E2,4.118694E3,5.407206E2,1.4099114E3,1.0254849E3,5.4664253E3,4.53159E3],"tree_param":{"num_deleted":"0","num_feature":"24","num_nodes":"25","size_leaf_vector":"0"}},{"base_weights":[-7.407365E-2,8.343525E-2,-1.0875944E0,1.7955033E-1,-1.0870913E0,-1.0521467E0,2.6770836E-1,6.8683624E-1,4.7886852E-2,7.322332E-1,-3.6886528E-1,2.7621442E-1,-3.5962698E-1,9.750799E-1,5.4503477E-1,-1.3808672E0,3.424308E-1,-2.0447984E-1,5.7520056E-1,-7.450366E-1,1.8654136E-1],"categories":[],"categories_nodes":[],"categories_segments":[],"categories_sizes":[],"default_left":[true,true,false,true,false,false,true,true,true,true,true,true,true,false,false,false,false,false,false,false,false],"id":25,"left_children":[1,3,-1,5,-1,-1,7,9,11,13,15,17,19,-1,-1,-1,-1,-1,-1,-1,-1],"loss_changes":[3.7064807E3,2.26088E3,0E0,2.0167103E3,0E0,0E0,1.5966927E3,2.860581E2,1.0580319E3,2.592141E2,1.7794102E2,1.0475662E3,8.5970056E2,0E0,0E0,0E0,0E0,0E0,0E0,0E0,0E0],"parents":[2147483647,0,0,1,1,3,3,6,6,7,7,8,8,9,9,10,10,11,11,12,12],"right_children":[2,4,-1,6,-1,-1,8,10,12,14,16,18,20,-1,-1,-1,-1,-1,-1,-1,-1],"split_conditions":[1.5E0,5E-1,-1.0875944E-1,5E-1,-1.08709134E-1,-1.0521467E-1,2.7558875E0,7.8900213E0,6.223112E0,2.380934E0,9.337442E0,8.219999E0,8.888757E0,9.750799E-2,5.4503478E-2,-1.3808672E-1,3.424308E-2,-2.0447984E-2,5.7520058E-2,-7.450366E-2,1.8654136E-2],"split_indices":[6,21,0,20,0,0,3,4,1,3,2,2,2,0,0,0,0,0,0,0,0],"split_type":[0,0,0,0,0,0,0,0,0,0,0,0,0,0,0,0,0,0,0,0,0],"sum_hessian":[2.321576E4,2.0093842E4,3.1219185E3,1.8569945E4,1.5238961E3,1.2395494E3,1.7330396E4,5.9613906E3,1.1369006E4,5.715994E3,2.4539648E2,7.2868145E3,4.082191E3,2.4861052E3,3.229889E3,1.0095757E2,1.444389E2,2.7942874E3,4.4925273E3,2.3932131E3,1.6889779E3],"tree_param":{"num_deleted":"0","num_feature":"24","num_nodes":"21","size_leaf_vector":"0"}},{"base_weights":[-6.9116384E-2,7.841077E-2,-1.0786053E0,1.66874E-1,-1.0785856E0,-1.046759E0,2.4727051E-1,-1.1356181E0,-1.0405192E0,4.97449E-1,-1.0562542E-1,5.9400666E-1,-3.1555444E-1,1.9007677E-1,-5.032738E-1,9.352996E-1,4.2260665E-1,4.8673412E-1,-5.2999777E-1,-3.989675E-1,4.2290163E-1,-3.7053087E-1,-1.1218346E0],"categories":[],"categories_nodes":[],"categories_segments":[],"categories_sizes":[],"default_left":[true,true,false,true,true,false,true,false,false,true,true,true,true,true,true,false,false,false,false,false,false,false,false],"id":26,"left_children":[1,3,-1,5,7,-1,9,-1,-1,11,13,15,17,19,21,-1,-1,-1,-1,-1,-1,-1,-1],"loss_changes":[3.324198E3,1.9933545E3,0E0,1.7654849E3,1.6038818E0,0E0,1.4982506E3,0E0,0E0,7.7974194E2,8.279447E2,5.187146E2,1.8171915E2,5.5398926E2,2.4600323E2,0E0,0E0,0E0,0E0,0E0,0E0,0E0,0E0],"parents":[2147483647,0,0,1,1,3,3,4,4,6,6,9,9,10,10,11,11,12,12,13,13,14,14],"right_children":[2,4,-1,6,8,-1,10,-1,-1,12,14,16,18,20,22,-1,-1,-1,-1,-1,-1,-1,-1],"split_conditions":[1.5E0,5E-1,-1.0786053E-1,5E-1,5E-1,-1.04675904E-1,6.703801E0,-1.1356181E-1,-1.04051925E-1,3.5E0,1.5E0,5.8126354E0,5.2704287E0,5E-1,3.5E0,9.352996E-2,4.2260665E-2,4.8673414E-2,-5.2999776E-2,-3.9896753E-2,4.2290162E-2,-3.705309E-2,-1.1218347E-1],"split_indices":[6,21,0,20,23,0,4,0,0,5,5,4,4,22,5,0,0,0,0,0,0,0,0],"split_type":[0,0,0,0,0,0,0,0,0,0,0,0,0,0,0,0,0,0,0,0,0,0,0],"sum_hessian":[2.2318748E4,1.947368E4,2.8450688E3,1.8091367E4,1.3823126E3,1.1231709E3,1.6968195E4,5.407229E2,8.415897E2,9.929061E3,7.0391353E3,8.875357E3,1.0537032E3,4.0372192E3,3.001916E3,2.9654634E3,5.909894E3,2.2187494E2,8.318283E2,1.143368E3,2.8938513E3,2.4729768E3,5.289391E2],"tree_param":{"num_deleted":"0","num_feature":"24","num_nodes":"23","size_leaf_vector":"0"}},{"base_weights":[-6.335978E-2,-1.038892E0,1.31455595E-2,2.3598556E-1,-2.1521899E-1,3.021093E-1,-5.683196E-1,2.0211607E-2,-5.1949847E-1,5.583202E-2,5.627095E-1,-1.2817298E0,1.383858E-1,9.198265E-2,-1.0346782E0,-7.130746E-1,1.632381E-1,3.4064567E-1,-4.3595183E-1,6.101301E-1,-1.0304894E0,-9.308186E-1,-1.5057442E0,7.557469E-1,-1.1041192E0,-1.4917144E-1,3.739442E-1,-4.9361005E-1,-1.3270686E0,4.9299547E-1,-8.3340764E-1,4.1318965E-1,-1.0307273E0,-8.6047477E-1,-6.545331E-2,6.9911015E-1,3.247947E-1,-1.1879964E0,3.514256E-2,-3.607122E-1,-1.5088713E0,7.692477E-2,1.0298578E0,-1.8367364E0,-1.3316306E-1,1.1594293E-1,-9.223623E-1,4.8967776E-1,1.3781205E-2,-9.135382E-1,-3.351244E-2,-1.1027508E0,-1.6242361E0,6.692109E-1,-1.21558264E-1,-1.3231916E0,-7.9318546E-2],"categories":[],"categories_nodes":[],"categories_segments":[],"categories_sizes":[],"default_left":[true,false,true,true,true,true,true,true,true,true,true,true,true,true,false,true,true,true,true,true,false,true,true,true,true,true,true,true,true,true,true,false,false,false,false,false,false,false,false,true,true,false,false,false,false,false,false,false,false,false,false,false,false,false,false,false,false],"id":27,"left_children":[1,-1,3,5,7,9,11,13,15,17,19,21,23,25,-1,27,29,31,33,35,-1,37,-1,41,43,45,47,49,51,53,55,-1,-1,-1,-1,-1,-1,-1,-1,-1,-1,-1,-1,-1,-1,-1,-1,-1,-1,-1,-1,-1,-1,-1,-1,-1,-1],"loss_changes":[1.6011754E3,0E0,1.0123913E3,5.35655E2,7.0389795E2,5.9709564E2,3.8605682E2,4.1943747E2,5.666284E2,6.7039087E2,3.4212634E2,2.8299805E1,2.9628592E2,3.528491E2,0E0,4.4917432E2,3.1177124E2,3.0189868E2,2.7592932E2,1.1114697E2,0E0,3.7723892E1,9.490967E-2,4.7815475E1,9.0765854E1,5.735137E2,9.965552E1,4.7554077E2,5.6508057E1,7.731059E1,8.6864716E1,0E0,0E0,0E0,0E0,0E0,0E0,0E0,0E0,0E0,0E0,0E0,0E0,0E0,0E0,0E0,0E0,0E0,0E0,0E0,0E0,0E0,0E0,0E0,0E0,0E0,0E0],"parents":[2147483647,0,0,2,2,3,3,4,4,5,5,6,6,7,7,8,8,9,9,10,10,11,11,12,12,13,13,15,15,16,16,17,17,18,18,19,19,21,21,22,22,23,23,24,24,25,25,26,26,27,27,28,28,29,29,30,30],"right_children":[2,-1,4,6,8,10,12,14,16,18,20,22,24,26,-1,28,30,32,34,36,-1,38,-1,42,44,46,48,50,52,54,56,-1,-1,-1,-1,-1,-1,-1,-1,-1,-1,-1,-1,-1,-1,-1,-1,-1,-1,-1,-1,-1,-1,-1,-1,-1,-1],"split_conditions":[5E-1,-1.03889205E-1,1.5E0,7.6589355E0,6.56315E0,8.589607E0,9.201904E0,5E-1,9.130052E0,6.4899645E0,5E-1,7.838935E0,8.353378E0,8.36241E0,-1.0346782E-1,6.56315E0,7.761532E0,5E-1,5E-1,7.235979E0,-1.0304894E-1,9.048645E0,-1.5057443E-1,9.330076E0,9.618664E0,5.9086943E0,6.42661E0,8.62775E0,6.802623E0,3.5E0,9.579554E0,4.1318964E-2,-1.03072725E-1,-8.604748E-2,-6.5453313E-3,6.991102E-2,3.2479472E-2,-1.1879964E-1,3.514256E-3,-3.6071222E-2,-1.5088713E-1,7.692477E-3,1.0298578E-1,-1.8367365E-1,-1.3316306E-2,1.1594294E-2,-9.2236236E-2,4.8967775E-2,1.3781205E-3,-9.1353826E-2,-3.351244E-3,-1.1027508E-1,-1.6242361E-1,6.692109E-2,-1.2155826E-2,-1.3231917E-1,-7.931855E-3],"split_indices":[20,0,5,4,4,2,2,23,2,4,23,4,4,2,0,1,4,23,22,4,0,2,0,2,2,1,1,2,1,5,2,0,0,0,0,0,0,0,0,2147483647,2147483647,0,0,0,0,0,0,0,0,0,0,0,0,0,0,0,0],"split_type":[0,0,0,0,0,0,0,0,0,0,0,0,0,0,0,0,0,0,0,0,0,0,0,0,0,0,0,0,0,0,0,0,0,0,0,0,0,0,0,0,0,0,0,0,0,0,0,0,0,0,0,0,0,0,0,0,0],"sum_hessian":[2.1451309E4,1.5591432E3,1.9892164E4,1.0068066E4,9.824098E3,9.303919E3,7.641476E2,5.5390024E3,4.2850957E3,4.784232E3,4.519687E3,3.799354E2,3.842122E2,5.187098E3,3.5190454E2,3.3386038E3,9.4649176E2,3.0299597E3,1.7542723E3,4.38971E3,1.2997713E2,1.5022087E2,2.2971452E2,2.5699286E2,1.2721932E2,2.7959304E3,2.3911675E3,2.4609385E3,8.7766534E2,7.1163934E2,2.3485243E2,2.878464E3,1.5149565E2,8.167897E2,9.374827E2,3.344841E3,1.044869E3,1.1853558E2,3.1685287E1,1.029628E0,2.2868489E2,7.439722E1,1.8259564E2,7.194207E1,5.5277256E1,2.0825718E3,7.133587E2,1.8091758E3,5.819919E2,1.286006E3,1.1749325E3,5.0301236E2,3.7465295E2,5.5311456E2,1.5852478E2,1.4183968E2,9.301275E1],"tree_param":{"num_deleted":"2","num_feature":"24","num_nodes":"57","size_leaf_vector":"0"}},{"base_weights":[-6.22306E-2,7.8286245E-2,-1.0730677E0,1.5786071E-1,-1.0725977E0,3.542212E-1,-2.2576341E-1,-1.1265799E0,-1.0325925E0,5.127798E-1,2.3744015E-2,-1.2994657E-1,-1.0594009E0,1.17505796E-1,7.7317756E-1,-5.403796E-1,4.7211578E-1,7.461006E-2,-5.3425527E-1,-4.1504294E-1,-1.1429924E0,5.3674054E-1,-4.4147912E-1,8.626213E-1,1.3813798E-1,-2.8561842E-1,-1.066169E0,6.8903494E-1,-6.823454E-1,-2.2288159E-1,6.722477E-1,-7.835971E-1,1.4584292E-1,-1.4126548E-1,-1.52378E0,-1.257151E0,-8.494479E-1],"categories":[],"categories_nodes":[],"categories_segments":[],"categories_sizes":[],"default_left":[true,true,false,true,true,true,true,false,false,true,true,true,true,true,true,true,true,true,true,true,true,false,false,false,false,false,false,false,false,false,false,false,false,false,false,false,false],"id":28,"left_children":[1,3,-1,5,7,9,11,-1,-1,13,15,17,19,21,23,25,27,29,31,33,35,-1,-1,-1,-1,-1,-1,-1,-1,-1,-1,-1,-1,-1,-1,-1,-1],"loss_changes":[2.9846663E3,1.6895731E3,0E0,1.2999641E3,1.1973877E0,5.980459E2,4.6643466E2,0E0,0E0,7.937339E2,9.366448E2,4.3358652E2,3.179889E1,7.1842883E2,2.6388135E2,2.1921213E2,5.1717126E2,6.191463E2,2.9884894E2,2.1122684E1,1.655658E1,0E0,0E0,0E0,0E0,0E0,0E0,0E0,0E0,0E0,0E0,0E0,0E0,0E0,0E0,0E0,0E0],"parents":[2147483647,0,0,1,1,3,3,4,4,5,5,6,6,9,9,10,10,11,11,12,12,13,13,14,14,15,15,16,16,17,17,18,18,19,19,20,20],"right_children":[2,4,-1,6,8,10,12,-1,-1,14,16,18,20,22,24,26,28,30,32,34,36,-1,-1,-1,-1,-1,-1,-1,-1,-1,-1,-1,-1,-1,-1,-1,-1],"split_conditions":[1.5E0,5E-1,-1.0730677E-1,3.125224E0,5E-1,6.8653693E0,3.5E0,-1.1265799E-1,-1.0325926E-1,8.302885E0,8.891512E0,6.908255E0,5.2704287E0,6.0879097E0,3.5E0,7.2727456E0,8.016153E0,8.481048E0,9.01256E0,3.5267997E0,8.7914095E0,5.3674053E-2,-4.4147912E-2,8.626213E-2,1.3813798E-2,-2.8561844E-2,-1.0661691E-1,6.89035E-2,-6.823454E-2,-2.2288159E-2,6.722477E-2,-7.8359716E-2,1.4584293E-2,-1.4126549E-2,-1.5237801E-1,-1.257151E-1,-8.494479E-2],"split_indices":[6,21,0,3,23,4,5,0,0,2,2,4,4,4,5,4,4,2,2,3,2,0,0,0,0,0,0,0,0,0,0,0,0,0,0,0,0],"split_type":[0,0,0,0,0,0,0,0,0,0,0,0,0,0,0,0,0,0,0,0,0,0,0,0,0,0,0,0,0,0,0,0,0,0,0,0,0],"sum_hessian":[2.1010621E4,1.8447105E4,2.5635154E3,1.7255008E4,1.1920967E3,1.1413349E4,5.8416597E3,4.9478406E2,6.973126E2,7.712257E3,3.7010923E3,5.240591E3,6.010685E2,3.0636255E3,4.6486313E3,1.6387959E3,2.0622964E3,3.48032E3,1.760271E3,6.984383E1,5.312247E2,1.7507751E3,1.3128503E3,4.0742651E3,5.7436597E2,1.1050828E3,5.3371313E2,1.7365033E3,3.25793E2,2.3239604E3,1.1563596E3,1.2880376E3,4.7223346E2,5.6989227E1,1.2854594E1,3.7987067E2,1.5135399E2],"tree_param":{"num_deleted":"0","num_feature":"24","num_nodes":"37","size_leaf_vector":"0"}},{"base_weights":[-5.6487333E-2,-1.0350395E0,1.4984218E-2,7.632421E-2,-1.067785E0,5.499294E-1,-4.8695263E-2,-1.1165694E0,-1.0291202E0,6.0740685E-1,-2.775315E-1,4.5053646E-2,-6.0931146E-1,8.206249E-1,4.5741633E-1,3.358678E-1,-5.606911E-1,1.2194435E-1,-4.5458522E-1,-4.2254224E-1,-9.343913E-1,9.492025E-1,7.311812E-1,3.5524687E-1,6.126328E-1,4.7463053E-1,-6.369854E-1,-3.3945266E-2,-8.1932193E-1,-1.08721904E-1,2.9707313E-1,-3.2362485E-1,-1.1560134E0,-3.1907305E-1,-1.0860333E0,-1.2069417E0,-7.5278527E-1],"categories":[],"categories_nodes":[],"categories_segments":[],"categories_sizes":[],"default_left":[true,false,true,true,true,true,true,false,false,true,true,true,true,true,true,true,true,true,true,true,true,false,false,false,false,false,false,false,false,false,false,false,false,false,false,false,false],"id":29,"left_children":[1,-1,3,5,7,9,11,-1,-1,13,15,17,19,21,23,25,27,29,31,33,35,-1,-1,-1,-1,-1,-1,-1,-1,-1,-1,-1,-1,-1,-1,-1,-1],"loss_changes":[1.4196819E3,0E0,1.2563677E3,1.0601371E3,5.493164E-1,1.7804321E2,7.4456415E2,0E0,0E0,1.11328125E2,4.2494377E1,4.6627847E2,1.2269769E2,1.5727539E1,3.2279602E1,1.0734805E1,2.2643536E1,4.2497443E2,1.4816739E2,8.814473E1,3.550183E1,0E0,0E0,0E0,0E0,0E0,0E0,0E0,0E0,0E0,0E0,0E0,0E0,0E0,0E0,0E0,0E0],"parents":[2147483647,0,0,2,2,3,3,4,4,5,5,6,6,9,9,10,10,11,11,12,12,13,13,14,14,15,15,16,16,17,17,18,18,19,19,20,20],"right_children":[2,-1,4,6,8,10,12,-1,-1,14,16,18,20,22,24,26,28,30,32,34,36,-1,-1,-1,-1,-1,-1,-1,-1,-1,-1,-1,-1,-1,-1,-1,-1],"split_conditions":[5E-1,-1.0350396E-1,5E-1,5.887491E0,5E-1,3.4305944E0,3.3384352E0,-1.1165694E-1,-1.0291202E-1,5.285735E0,5.2122107E0,7.4846497E0,3.4807782E0,4.5591125E0,5E-1,3.6394262E0,8.710041E0,5E-1,8.354792E0,7.4722166E0,5E-1,9.492025E-2,7.311812E-2,3.552469E-2,6.126328E-2,4.7463056E-2,-6.3698545E-2,-3.3945267E-3,-8.1932195E-2,-1.0872191E-2,2.9707313E-2,-3.2362487E-2,-1.1560134E-1,-3.1907305E-2,-1.08603336E-1,-1.20694175E-1,-7.527853E-2],"split_indices":[20,0,21,4,23,3,3,0,0,4,4,4,3,4,22,3,0,22,4,4,22,0,0,0,0,0,0,0,0,0,0,0,0,0,0,0,0],"split_type":[0,0,0,0,0,0,0,0,0,0,0,0,0,0,0,0,0,0,0,0,0,0,0,0,0,0,0,0,0,0,0,0,0,0,0,0,0],"sum_hessian":[2.0296283E4,1.3806766E3,1.8915605E4,1.7902436E4,1.0131695E3,3.7382827E3,1.4164153E4,4.3449445E2,5.7867505E2,3.4958398E3,2.4244293E2,1.2135533E4,2.0286202E3,1.4415198E3,2.05432E3,7.640026E1,1.6604268E2,1.0517867E4,1.6176656E3,1.2900505E3,7.385697E2,5.869843E2,8.5453546E2,1.2412286E3,8.1309143E2,6.740139E1,8.99887E0,5.5179043E1,1.1086363E2,4.5391084E3,5.978759E3,1.3645085E3,2.5315706E2,1.1174237E3,1.7262685E2,2.9285815E2,4.4571155E2],"tree_param":{"num_deleted":"0","num_feature":"24","num_nodes":"37","size_leaf_vector":"0"}},{"base_weights":[-5.236054E-2,5.6723966E-3,-1.0553297E0,2.3033378E-1,-2.156669E-1,-7.8018913E-3,4.0624693E-1,6.003194E-2,-4.5345798E-1,6.095621E-1,-1.9077016E-1,5.077829E-1,-3.3730763E-1,-4.740684E-1,1.8815619E-1,-7.0258844E-1,-1.01402074E-1,-7.591402E-1,7.0326E-1,-1.1377921E0,-3.9280657E-2,2.2321512E-1,6.74036E-1,-1.0281998E0,2.766669E-1,2.4528034E-2,-1.0718901E0,4.026824E-1,-8.230197E-2,-4.84244E-1,-1.2735562E0,2.829563E-1,-6.430111E-1,7.521123E-1,-1.7792231E0,7.1906817E-1,-9.0636224E-1,-3.8545907E-1,-1.4109812E0,2.8861526E-1,-4.8888743E-1,5.191889E-1,-9.032186E-2,7.7674437E-1,-9.519731E-2,-7.042441E-1,-1.3504121E0,7.964894E-1,-7.7440053E-1,-7.833208E-1,5.0382E-1,7.41312E-2,-1.2371856E0,4.485442E-1,-2.0395552E-1,-5.31761E-1,4.111158E-1,-8.3440626E-1,-1.1677731E-1,-1.113859E0,-1.5959241E0,5.0217193E-1,-2.8568E-1,-1.0681887E0,-4.889458E-2],"categories":[],"categories_nodes":[],"categories_segments":[],"categories_sizes":[],"default_left":[true,true,false,true,true,true,true,true,true,true,true,true,true,true,true,true,true,true,true,true,true,true,true,true,true,true,true,true,true,true,true,true,true,false,false,false,false,false,false,false,false,false,false,false,false,false,false,false,false,false,false,false,false,false,false,false,false,false,false,false,false,false,false,false,false],"id":30,"left_children":[1,3,-1,5,7,9,11,13,15,17,19,21,23,25,27,29,31,33,35,37,39,41,43,45,47,49,51,53,55,57,59,61,63,-1,-1,-1,-1,-1,-1,-1,-1,-1,-1,-1,-1,-1,-1,-1,-1,-1,-1,-1,-1,-1,-1,-1,-1,-1,-1,-1,-1,-1,-1,-1,-1],"loss_changes":[1.1558969E3,9.335083E2,0E0,3.903319E2,6.199989E2,4.4728128E2,4.0475507E2,2.9976965E2,4.4517834E2,1.16617065E2,4.3809677E2,2.2284485E2,2.736725E2,2.5274698E2,2.0506348E2,3.698463E2,4.385052E2,9.148711E1,2.2205536E1,8.583484E1,3.8857837E2,1.6161905E2,2.3524365E2,3.0519135E1,1.874005E2,1.796327E2,7.323688E1,5.4944336E1,3.4696808E2,2.7675555E2,4.0252075E1,1.5374687E2,2.2069998E2,0E0,0E0,0E0,0E0,0E0,0E0,0E0,0E0,0E0,0E0,0E0,0E0,0E0,0E0,0E0,0E0,0E0,0E0,0E0,0E0,0E0,0E0,0E0,0E0,0E0,0E0,0E0,0E0,0E0,0E0,0E0,0E0],"parents":[2147483647,0,0,1,1,3,3,4,4,5,5,6,6,7,7,8,8,9,9,10,10,11,11,12,12,13,13,14,14,15,15,16,16,17,17,18,18,19,19,20,20,21,21,22,22,23,23,24,24,25,25,26,26,27,27,28,28,29,29,30,30,31,31,32,32],"right_children":[2,4,-1,6,8,10,12,14,16,18,20,22,24,26,28,30,32,34,36,38,40,42,44,46,48,50,52,54,56,58,60,62,64,-1,-1,-1,-1,-1,-1,-1,-1,-1,-1,-1,-1,-1,-1,-1,-1,-1,-1,-1,-1,-1,-1,-1,-1,-1,-1,-1,-1,-1,-1,-1,-1],"split_conditions":[5E-1,1.5E0,-1.0553297E-1,5E-1,6.3960958E0,5.8126354E0,7.6369934E0,7.8847647E0,8.842243E0,7.4058E0,7.96676E0,5E-1,9.201904E0,5.4009643E0,5.9382086E0,6.3880234E0,7.320858E0,5.0466404E0,5E-1,5.2925253E0,6.09704E0,6.6207395E0,1.5E0,7.8726454E0,8.332308E0,7.469368E0,5.144579E0,3.4596233E0,8.568266E0,8.440636E0,6.700983E0,6.7536654E0,9.254357E0,7.5211234E-2,-1.7792231E-1,7.190682E-2,-9.063622E-2,-3.8545907E-2,-1.4109813E-1,2.8861526E-2,-4.8888743E-2,5.191889E-2,-9.032186E-3,7.767444E-2,-9.519732E-3,-7.042441E-2,-1.3504122E-1,7.964894E-2,-7.744005E-2,-7.833208E-2,5.0382E-2,7.41312E-3,-1.2371856E-1,4.485442E-2,-2.0395553E-2,-5.31761E-2,4.111158E-2,-8.3440624E-2,-1.1677731E-2,-1.11385904E-1,-1.5959242E-1,5.0217193E-2,-2.8568E-2,-1.0681887E-1,-4.889458E-3],"split_indices":[21,5,0,22,4,4,4,2,2,2,2,19,2,1,1,1,4,4,17,1,1,4,7,4,4,2,4,3,2,2,1,1,2,0,0,0,0,0,0,0,0,0,0,0,0,0,0,0,0,0,0,0,0,0,0,0,0,0,0,0,0,0,0,0,0],"split_type":[0,0,0,0,0,0,0,0,0,0,0,0,0,0,0,0,0,0,0,0,0,0,0,0,0,0,0,0,0,0,0,0,0,0,0,0,0,0,0,0,0,0,0,0,0,0,0,0,0,0,0,0,0,0,0,0,0,0,0,0,0,0,0,0,0],"sum_hessian":[1.9856076E4,1.8770867E4,1.0852091E3,9.3157295E3,9.455138E3,3.9580537E3,5.357676E3,4.3787134E3,5.0764243E3,9.0421405E2,3.0538396E3,4.714359E3,6.433168E2,8.465004E2,3.532213E3,2.9720146E3,2.1044097E3,5.7410774E1,8.468033E2,4.201489E2,2.6336907E3,1.7396411E3,2.9747178E3,3.0245685E2,3.408599E2,4.6198584E2,3.8451462E2,1.9697202E3,1.5624926E3,2.151341E3,8.206736E2,1.2310648E3,8.7334485E2,2.320187E1,3.4208904E1,8.3917706E2,7.6262083E0,1.1266335E2,3.0748557E2,1.5230638E3,1.110627E3,8.9471136E2,8.4492975E2,2.6244238E3,3.5029385E2,1.5256367E2,1.4989316E2,2.2829181E2,1.1256809E2,1.7171553E2,2.902703E2,4.8462498E1,3.3605212E2,1.8316714E3,1.3804884E2,8.177349E2,7.447577E2,1.1008185E3,1.0505226E3,5.5198987E2,2.686837E2,8.8873883E2,3.42326E2,5.0848376E2,3.6486108E2],"tree_param":{"num_deleted":"0","num_feature":"24","num_nodes":"65","size_leaf_vector":"0"}},{"base_weights":[-4.814256E-2,8.886809E-2,-1.0695374E0,-1.0335536E0,1.5645364E-1,5.7028246E-1,2.4907902E-2,6.3974875E-1,-1.0192544E0,3.2673165E-1,-1.624097E-1,8.138444E-1,4.89112E-1,-4.2959312E-1,5.6980306E-1,-5.564209E-1,1.8611367E-1,8.323369E-1,-8.904033E-3,-2.2051276E-1,5.761513E-1,3.9423978E-1,-8.812579E-1,6.563412E-1,-5.284642E-1,-4.188635E-1,-1.2639831E0,5.0110835E-1,-3.9244783E-1],"categories":[],"categories_nodes":[],"categories_segments":[],"categories_sizes":[],"default_left":[true,true,false,false,true,true,true,true,false,true,true,true,true,true,true,true,true,false,false,false,false,false,false,false,false,false,false,false,false],"id":31,"left_children":[1,3,-1,-1,5,7,9,11,-1,13,15,17,19,21,23,25,27,-1,-1,-1,-1,-1,-1,-1,-1,-1,-1,-1,-1],"loss_changes":[2.7327036E3,1.3061786E3,0E0,0E0,8.840183E2,4.3312915E2,6.968582E2,9.791284E1,0E0,8.680293E2,1.0445125E3,2.655481E1,1.2463449E2,4.277543E2,3.399171E2,3.467788E2,7.357799E2,0E0,0E0,0E0,0E0,0E0,0E0,0E0,0E0,0E0,0E0,0E0,0E0],"parents":[2147483647,0,0,1,1,4,4,5,5,6,6,7,7,9,9,10,10,11,11,12,12,13,13,14,14,15,15,16,16],"right_children":[2,4,-1,-1,6,8,10,12,-1,14,16,18,20,22,24,26,28,-1,-1,-1,-1,-1,-1,-1,-1,-1,-1,-1,-1],"split_conditions":[1.5E0,5E-1,-1.0695374E-1,-1.0335536E-1,2.605279E0,5E-1,5.828784E0,2.2839117E0,-1.0192545E-1,7.901192E0,8.671544E0,8.304859E0,7.952791E0,5.6149497E0,7.445709E0,6.461921E0,7.320196E0,8.323369E-2,-8.9040335E-4,-2.2051277E-2,5.761513E-2,3.942398E-2,-8.812579E-2,6.5634124E-2,-5.284642E-2,-4.1886352E-2,-1.2639831E-1,5.0110836E-2,-3.9244782E-2],"split_indices":[6,20,0,0,3,23,1,3,0,2,2,4,2,4,4,1,4,0,0,0,0,0,0,0,0,0,0,0,0],"split_type":[0,0,0,0,0,0,0,0,0,0,0,0,0,0,0,0,0,0,0,0,0,0,0,0,0,0,0,0,0],"sum_hessian":[1.9525025E4,1.7216418E4,2.308608E3,9.768975E2,1.62395205E4,3.9160261E3,1.2323494E4,3.7526858E3,1.6334029E2,4.7192246E3,7.60427E3,1.7384447E3,2.0142412E3,1.147515E3,3.5717097E3,3.5690696E3,4.0352002E3,1.7003369E3,3.810777E1,2.1977231E2,1.7944689E3,4.063116E2,7.4120337E2,3.3112896E3,2.604201E2,2.9895947E3,5.79475E2,2.612918E3,1.4222823E3],"tree_param":{"num_deleted":"0","num_feature":"24","num_nodes":"29","size_leaf_vector":"0"}},{"base_weights":[-4.3402374E-2,8.407886E-2,-1.0625336E0,1.4820302E-1,-1.0563374E0,-1.0314515E0,2.0850757E-1,6.615472E-1,7.425441E-2,-6.7590815E-1,7.653256E-1,-4.5405155E-1,2.8224242E-1,4.175468E-1,-1.3477689E0,1.0153543E0,5.775342E-1,-2.2161165E-1,-1.0746583E0,6.114545E-1,-9.687995E-2],"categories":[],"categories_nodes":[],"categories_segments":[],"categories_sizes":[],"default_left":[true,true,false,true,false,false,true,true,true,true,true,true,true,false,false,false,false,false,false,false,false],"id":32,"left_children":[1,3,-1,5,-1,-1,7,9,11,13,15,17,19,-1,-1,-1,-1,-1,-1,-1,-1],"loss_changes":[2.462685E3,1.232091E3,0E0,1.1349026E3,0E0,0E0,9.229526E2,4.8202502E2,1.28667E3,1.8450577E2,1.504336E2,4.7677972E2,1.0487695E3,0E0,0E0,0E0,0E0,0E0,0E0,0E0,0E0],"parents":[2147483647,0,0,1,1,3,3,6,6,7,7,8,8,9,9,10,10,11,11,12,12],"right_children":[2,4,-1,6,-1,-1,8,10,12,14,16,18,20,-1,-1,-1,-1,-1,-1,-1,-1],"split_conditions":[1.5E0,5E-1,-1.0625336E-1,5E-1,-1.05633736E-1,-1.03145145E-1,5.9750805E0,7.4696536E0,8.364858E0,5.1789665E0,5.5538507E0,6.041492E0,7.0206375E0,4.175468E-2,-1.3477689E-1,1.0153543E-1,5.775342E-2,-2.2161165E-2,-1.07465826E-1,6.114545E-2,-9.687996E-3],"split_indices":[6,21,0,20,0,0,4,2,2,4,1,1,4,0,0,0,0,0,0,0,0],"split_type":[0,0,0,0,0,0,0,0,0,0,0,0,0,0,0,0,0,0,0,0,0],"sum_hessian":[1.895294E4,1.6846467E4,2.1064739E3,1.5950545E4,8.9592096E2,7.7488007E2,1.5175665E4,3.468038E3,1.1707627E4,2.4925537E2,3.2187827E3,3.3066953E3,8.400932E3,9.495141E1,1.5430397E2,1.3784934E3,1.8402893E3,2.4067847E3,8.999106E2,4.49625E3,3.9046814E3],"tree_param":{"num_deleted":"0","num_feature":"24","num_nodes":"21","size_leaf_vector":"0"}},{"base_weights":[-3.955401E-2,7.969113E-2,-1.0563973E0,1.3945436E-1,-1.0506493E0,2.2133066E-1,-5.9964466E-1,3.3659306E-1,-2.8563273E-1,2.0467398E-1,-7.81691E-1,5.190304E-1,7.646759E-2,4.324938E-1,-3.9752167E-1,5.5823815E-1,-1.1692162E-1,-8.924053E-1,5.2147657E-2,1.0088376E-2,7.6808363E-1,-6.148397E-1,4.0604475E-1,-9.306059E-1,5.582183E-1,-1.0195088E0,-2.7269527E-1,4.4186112E-1,9.8957175E-1,-6.1001325E-1,2.0906045E-1,-6.671674E-1,-1.3776877E0,9.7037566E-1,-8.133969E-1],"categories":[],"categories_nodes":[],"categories_segments":[],"categories_sizes":[],"default_left":[true,true,false,true,false,true,true,true,true,true,true,true,true,true,true,true,true,true,true,false,false,false,false,false,false,false,false,false,false,false,false,false,false,false,false],"id":33,"left_children":[1,3,-1,5,-1,7,9,11,13,15,17,19,21,23,25,27,29,31,33,-1,-1,-1,-1,-1,-1,-1,-1,-1,-1,-1,-1,-1,-1,-1,-1],"loss_changes":[2.211376E3,1.1027109E3,0E0,9.383237E2,0E0,8.1576544E2,2.2664441E2,5.3965466E2,2.0796515E2,3.2639893E1,1.1656995E2,8.472235E2,1.0687811E3,6.0288322E1,1.7336398E2,6.276367E0,2.4358871E1,1.2059839E2,1.18970055E2,0E0,0E0,0E0,0E0,0E0,0E0,0E0,0E0,0E0,0E0,0E0,0E0,0E0,0E0,0E0,0E0],"parents":[2147483647,0,0,1,1,3,3,5,5,6,6,7,7,8,8,9,9,10,10,11,11,12,12,13,13,14,14,15,15,16,16,17,17,18,18],"right_children":[2,4,-1,6,-1,8,10,12,14,16,18,20,22,24,26,28,30,32,34,-1,-1,-1,-1,-1,-1,-1,-1,-1,-1,-1,-1,-1,-1,-1,-1],"split_conditions":[1.5E0,5E-1,-1.0563973E-1,3.5E0,-1.0506493E-1,3.2897072E0,2.5059338E0,6.7563505E0,5.234525E0,2.1775885E0,9.173987E0,8.118952E0,8.683893E0,7.3733616E0,8.047669E0,9.230682E0,8.557856E0,6.444457E0,7.089242E0,1.0088376E-3,7.680836E-2,-6.1483968E-2,4.0604476E-2,-9.306059E-2,5.5821832E-2,-1.01950884E-1,-2.7269527E-2,4.418611E-2,9.895717E-2,-6.1001327E-2,2.0906044E-2,-6.6716745E-2,-1.3776878E-1,9.703757E-2,-8.133969E-2],"split_indices":[6,21,0,5,0,3,3,4,1,3,2,2,2,2,2,2,2,1,4,0,0,0,0,0,0,0,0,0,0,0,0,0,0,0,0],"split_type":[0,0,0,0,0,0,0,0,0,0,0,0,0,0,0,0,0,0,0,0,0,0,0,0,0,0,0,0,0,0,0,0,0,0,0],"sum_hessian":[1.8235107E4,1.6321867E4,1.9132408E3,1.5503151E4,8.1871594E2,1.3957767E4,1.5453846E3,1.1372635E4,2.5851316E3,2.850963E2,1.2602883E3,6.683692E3,4.6889434E3,3.4797784E2,2.2371538E3,1.3559616E2,1.4950015E2,1.1126095E3,1.4767883E2,2.1965234E3,4.4871685E3,1.5133773E3,3.175566E3,2.8777376E1,3.1920047E2,3.7259787E2,1.8645558E3,1.0856166E2,2.7034504E1,5.9274685E1,9.022546E1,7.616704E2,3.5093912E2,7.165587E1,7.6022964E1],"tree_param":{"num_deleted":"0","num_feature":"24","num_nodes":"35","size_leaf_vector":"0"}},{"base_weights":[-3.9925847E-2,6.986607E-2,-1.0506561E0,-1.0277361E0,1.2821011E-1,1.8105797E-1,-1.0495145E0,7.269509E-1,6.027099E-2,7.7989614E-1,2.120894E-2,4.7106224E-1,-9.321524E-2,8.358226E-1,2.9754156E-1,2.4025618E-1,-5.199828E-1,5.147868E-1,-8.767019E-1,-3.6923783E-3,-8.2657975E-1],"categories":[],"categories_nodes":[],"categories_segments":[],"categories_sizes":[],"default_left":[true,true,false,false,true,true,false,true,true,true,true,true,true,false,false,false,false,false,false,false,false],"id":34,"left_children":[1,3,-1,-1,5,7,-1,9,11,13,15,17,19,-1,-1,-1,-1,-1,-1,-1,-1],"loss_changes":[1.9668988E3,1.0238481E3,0E0,0E0,9.449967E2,9.5796173E2,0E0,9.826184E1,7.5032495E2,6.568872E1,2.2011147E1,1.9116888E2,5.6867096E2,0E0,0E0,0E0,0E0,0E0,0E0,0E0,0E0],"parents":[2147483647,0,0,1,1,4,4,5,5,7,7,8,8,9,9,10,10,11,11,12,12],"right_children":[2,4,-1,-1,6,8,-1,10,12,14,16,18,20,-1,-1,-1,-1,-1,-1,-1,-1],"split_conditions":[1.5E0,5E-1,-1.0506561E-1,-1.0277361E-1,5E-1,2.520515E0,-1.04951456E-1,7.6955304E0,5.6715345E0,3.5E0,8.443546E0,7.718908E0,3.5E0,8.358226E-2,2.9754156E-2,2.4025617E-2,-5.1998284E-2,5.147868E-2,-8.767019E-2,-3.6923782E-4,-8.265798E-2],"split_indices":[6,20,0,0,21,3,0,4,1,5,4,4,5,0,0,0,0,0,0,0,0],"split_type":[0,0,0,0,0,0,0,0,0,0,0,0,0,0,0,0,0,0,0,0,0],"sum_hessian":[1.7722053E4,1.5986347E4,1.7357062E3,8.059533E2,1.5180394E4,1.4529352E4,6.5104224E2,2.6313232E3,1.1898028E4,2.4474658E3,1.8385725E2,3.2359363E3,8.662092E3,2.192336E3,2.5512984E2,1.3140994E2,5.2447304E1,3.1349243E3,1.01011795E2,7.72075E3,9.4134174E2],"tree_param":{"num_deleted":"0","num_feature":"24","num_nodes":"21","size_leaf_vector":"0"}},{"base_weights":[-3.59852E-2,6.575163E-2,-1.0455797E0,-1.0247691E0,1.19378395E-1,1.9917902E-1,-4.7081223E-1,3.8400677E-1,-2.9512122E-2,2.0531271E-1,-5.790203E-1,4.2782634E-1,-1.0135349E0,2.1777745E-1,-2.8159744E-1,3.42601E-1,-4.007234E-1,-2.8963983E-1,-7.8307205E-1,4.6406645E-1,-5.9746164E-1,-3.130589E-1,4.492445E-1,1.937586E-1,-4.4026864E-1,3.975797E-1,-1.1314893E0,2.790177E-1,-6.633406E-1,-7.7880347E-1,2.022583E-2,-6.8061614E-1,-1.270124E0],"categories":[],"categories_nodes":[],"categories_segments":[],"categories_sizes":[],"default_left":[true,true,false,false,true,true,true,true,true,true,true,true,false,true,true,true,true,true,true,false,false,false,false,false,false,false,false,false,false,false,false,false,false],"id":35,"left_children":[1,3,-1,-1,5,7,9,11,13,15,17,19,-1,21,23,25,27,29,31,-1,-1,-1,-1,-1,-1,-1,-1,-1,-1,-1,-1,-1,-1],"loss_changes":[1.770188E3,9.156109E2,0E0,0E0,7.0291144E2,5.557318E2,1.3020941E2,4.456394E2,3.664109E2,2.058677E1,9.017255E1,2.6223865E2,0E0,3.647056E2,2.1965613E2,1.6675776E1,8.387569E0,9.643808E1,4.3757507E1,0E0,0E0,0E0,0E0,0E0,0E0,0E0,0E0,0E0,0E0,0E0,0E0,0E0,0E0],"parents":[2147483647,0,0,1,1,4,4,5,5,6,6,7,7,8,8,9,9,10,10,11,11,13,13,14,14,15,15,16,16,17,17,18,18],"right_children":[2,4,-1,-1,6,8,10,12,14,16,18,20,-1,22,24,26,28,30,32,-1,-1,-1,-1,-1,-1,-1,-1,-1,-1,-1,-1,-1,-1],"split_conditions":[1.5E0,5E-1,-1.0455797E-1,-1.0247691E-1,3.3715968E0,6.1307373E0,5.229932E0,5E-1,1.5E0,3.5693917E0,1.5E0,7.684554E0,-1.0135349E-1,5E-1,2.6336858E0,7.6043963E0,4.6164436E0,5E-1,3.5E0,4.6406645E-2,-5.9746165E-2,-3.130589E-2,4.492445E-2,1.937586E-2,-4.4026863E-2,3.975797E-2,-1.1314893E-1,2.7901769E-2,-6.633406E-2,-7.7880345E-2,2.022583E-3,-6.806161E-2,-1.270124E-1],"split_indices":[6,20,0,0,3,1,1,23,5,3,5,4,0,22,3,4,1,22,5,0,0,0,0,0,0,0,0,0,0,0,0,0,0],"split_type":[0,0,0,0,0,0,0,0,0,0,0,0,0,0,0,0,0,0,0,0,0,0,0,0,0,0,0,0,0,0,0,0,0],"sum_hessian":[1.72317E4,1.5654982E4,1.5767167E3,7.3282074E2,1.4922162E4,1.3145562E4,1.7766006E3,7.2698447E3,5.875717E3,2.4485193E2,1.5317487E3,7.0495728E3,2.2027225E2,2.9659407E3,2.9097761E3,2.0011794E2,4.4733994E1,6.346356E2,8.97113E2,6.8095264E3,2.4004633E2,9.0034485E2,2.0655957E3,7.279853E2,2.1817908E3,1.93692E2,6.425943E0,1.2342987E1,3.2391006E1,2.4565164E2,3.8898398E2,7.4334595E2,1.5376703E2],"tree_param":{"num_deleted":"0","num_feature":"24","num_nodes":"33","size_leaf_vector":"0"}},{"base_weights":[-3.5671994E-2,5.831376E-2,-1.0409956E0,1.0706616E-1,-1.0427971E0,-1.0231916E0,1.5425412E-1,6.224407E-1,3.4935877E-2,-5.7237935E-1,7.456118E-1,-3.2781273E-1,3.203432E-1,6.080705E-1,-1.0436354E0,8.7535554E-1,7.137576E-2,-7.297294E-2,-8.261063E-1,6.841662E-1,-9.945296E-2],"categories":[],"categories_nodes":[],"categories_segments":[],"categories_sizes":[],"default_left":[true,true,false,true,false,false,true,true,true,true,true,true,true,false,false,false,false,false,false,false,false],"id":36,"left_children":[1,3,-1,5,-1,-1,7,9,11,13,15,17,19,-1,-1,-1,-1,-1,-1,-1,-1],"loss_changes":[1.5909263E3,8.265809E2,0E0,7.8652185E2,0E0,0E0,7.9069055E2,4.2350305E2,1.1681356E3,1.503987E2,2.2785754E2,6.307367E2,9.645858E2,0E0,0E0,0E0,0E0,0E0,0E0,0E0,0E0],"parents":[2147483647,0,0,1,1,3,3,6,6,7,7,8,8,9,9,10,10,11,11,12,12],"right_children":[2,4,-1,6,-1,-1,8,10,12,14,16,18,20,-1,-1,-1,-1,-1,-1,-1,-1],"split_conditions":[1.5E0,5E-1,-1.04099564E-1,5E-1,-1.0427971E-1,-1.0231916E-1,5.93357E0,7.537696E0,8.554104E0,5.0205803E0,3.5E0,6.0659456E0,7.140849E0,6.080705E-2,-1.0436354E-1,8.753555E-2,7.1375757E-3,-7.2972937E-3,-8.261063E-2,6.841662E-2,-9.945296E-3],"split_indices":[6,21,0,20,0,0,4,2,2,4,5,1,4,0,0,0,0,0,0,0,0],"split_type":[0,0,0,0,0,0,0,0,0,0,0,0,0,0,0,0,0,0,0,0,0],"sum_hessian":[1.6834992E4,1.539645E4,1.4385416E3,1.4744616E4,6.5183386E2,5.899996E2,1.4154617E4,2.8736802E3,1.1280937E4,2.681392E2,2.605541E3,4.967199E3,6.313738E3,7.636069E1,1.9177852E2,2.1846924E3,4.2084854E2,3.2873257E3,1.6798733E3,3.3821511E3,2.9315864E3],"tree_param":{"num_deleted":"0","num_feature":"24","num_nodes":"21","size_leaf_vector":"0"}},{"base_weights":[-3.4359578E-2,5.2904837E-2,-1.0369011E0,-5.586435E-2,5.0796163E-1,6.885185E-2,-8.249046E-1,6.7744416E-1,-6.94018E-1,-2.5469044E-1,2.8627184E-1,-6.308914E-1,-1.4320831E0,7.5901824E-1,-1.0449529E0,-1.1962295E0,2.9803398E-1,7.534081E-2,-7.3585314E-1,4.7189584E-1,-4.9968308E-1,-1.0667623E0,-3.4230575E-1,-9.278947E-1,-1.6515886E0,-1.0121044E0,8.212794E-1,-7.5686413E-1,-1.5028857E0,1.1313767E0,-9.697573E-1,-4.238993E-1,3.0426598E-1,-5.620461E-2,-8.83459E-1,5.666606E-1,-1.038274E0,-8.415082E-1,1.0192963E-2,-2.3586194E-1,-1.1435462E0,2.188693E-1,-7.9624265E-1,-1.7372726E0,-6.607017E-1,5.1641744E-2,-1.6947312E0,9.9503016E-1,2.7632394E-1,-1.2995027E0,4.472652E-1,1.8984954E-1,-1.522099E0,5.2966344E-1,1.4229839E0,-1.5130991E0,4.9226576E-1],"categories":[],"categories_nodes":[],"categories_segments":[],"categories_sizes":[],"default_left":[true,true,false,true,true,true,true,true,true,true,true,true,true,true,false,true,true,true,true,true,true,true,true,true,true,false,true,true,true,true,true,false,false,false,false,false,false,false,false,false,false,false,false,false,false,false,false,false,false,false,false,false,false,false,false,false,false],"id":37,"left_children":[1,3,-1,5,7,9,11,13,15,17,19,21,23,25,-1,27,29,31,33,35,37,39,41,43,45,-1,47,49,51,53,55,-1,-1,-1,-1,-1,-1,-1,-1,-1,-1,-1,-1,-1,-1,-1,-1,-1,-1,-1,-1,-1,-1,-1,-1,-1,-1],"loss_changes":[1.4287919E3,7.4366156E2,0E0,1.1631311E3,5.9092114E2,7.3408527E2,1.9823608E2,3.5775842E2,1.7910966E2,6.6613965E2,9.108011E2,1.610484E2,4.3460144E1,2.6839514E2,0E0,3.0749847E1,1.2922266E2,2.8452786E2,1.7105981E2,7.231876E2,2.0798697E2,3.2194763E1,1.9748795E2,2.595546E1,2.1079224E1,0E0,2.2161572E2,6.608679E1,4.950165E0,1.197818E1,3.9440666E1,0E0,0E0,0E0,0E0,0E0,0E0,0E0,0E0,0E0,0E0,0E0,0E0,0E0,0E0,0E0,0E0,0E0,0E0,0E0,0E0,0E0,0E0,0E0,0E0,0E0,0E0],"parents":[2147483647,0,0,1,1,3,3,4,4,5,5,6,6,7,7,8,8,9,9,10,10,11,11,12,12,13,13,15,15,16,16,17,17,18,18,19,19,20,20,21,21,22,22,23,23,24,24,26,26,27,27,28,28,29,29,30,30],"right_children":[2,4,-1,6,8,10,12,14,16,18,20,22,24,26,-1,28,30,32,34,36,38,40,42,44,46,-1,48,50,52,54,56,-1,-1,-1,-1,-1,-1,-1,-1,-1,-1,-1,-1,-1,-1,-1,-1,-1,-1,-1,-1,-1,-1,-1,-1,-1,-1],"split_conditions":[1.5E0,9.010974E0,-1.0369011E-1,6.4893723E0,8.071843E0,8.235228E0,6.7971697E0,5E-1,9.618664E0,6.2015224E0,7.097135E0,8.653994E0,1.5E0,5E-1,-1.0449529E-1,8.327484E0,8.770206E0,7.757051E0,5.326929E0,5E-1,8.783167E0,5.692046E0,6.986104E0,5E-1,1.8764057E0,-1.0121044E-1,6.7815056E0,9.42355E0,4.50445E0,9.790763E0,1.0322696E1,-4.238993E-2,3.0426597E-2,-5.620461E-3,-8.83459E-2,5.6666058E-2,-1.0382741E-1,-8.415082E-2,1.0192964E-3,-2.3586195E-2,-1.14354625E-1,2.188693E-2,-7.9624265E-2,-1.7372726E-1,-6.607017E-2,5.1641744E-3,-1.6947313E-1,9.950302E-2,2.7632395E-2,-1.2995027E-1,4.472652E-2,1.8984955E-2,-1.5220991E-1,5.2966345E-2,1.4229839E-1,-1.513099E-1,4.922658E-2],"split_indices":[6,2,0,1,4,2,1,21,2,4,4,2,5,20,0,4,4,2,1,21,2,4,4,22,3,0,1,2,1,2,2,0,0,0,0,0,0,0,0,0,0,0,0,0,0,0,0,0,0,0,0,0,0,0,0,0,0],"split_type":[0,0,0,0,0,0,0,0,0,0,0,0,0,0,0,0,0,0,0,0,0,0,0,0,0,0,0,0,0,0,0,0,0,0,0,0,0,0,0,0,0,0,0,0,0,0,0,0,0,0,0,0,0,0,0,0,0],"sum_hessian":[1.6328873E4,1.50221455E4,1.3067279E3,1.2124714E4,2.8974316E3,1.0433483E4,1.6912303E3,2.5398284E3,3.576034E2,4.193103E3,6.2403804E3,1.2833591E3,4.0787115E2,2.4255688E3,1.1425943E2,2.373457E2,1.20257706E2,2.4875315E3,1.7055714E3,5.048557E3,1.1918231E3,5.1001105E2,7.733481E2,1.2543612E2,2.8243506E2,8.1799E1,2.34377E3,9.91219E1,1.382238E2,7.2674126E1,4.7583576E1,7.8164075E2,1.7058909E3,3.0469E2,1.4008815E3,4.751111E3,2.974462E2,7.132202E2,4.7860297E2,4.3598095E1,4.6641296E2,3.459582E2,4.2738986E2,2.9673454E1,9.576266E1,6.9151998E0,2.7551984E2,1.7763866E3,5.6738324E2,6.833204E1,3.078986E1,1.3932059E0,1.368306E2,2.4754345E1,4.791978E1,3.4715485E1,1.2868093E1],"tree_param":{"num_deleted":"0","num_feature":"24","num_nodes":"57","size_leaf_vector":"0"}},{"base_weights":[-2.803607E-2,5.323561E-2,-1.0330803E0,-1.0197066E0,9.873207E-2,1.3983747E-1,-1.0380558E0,3.2095584E-1,-1.6226788E-1,-3.6892265E-1,3.9107794E-1,3.1405103E-1,-3.0484125E-1,5.6396764E-2,-1.2351972E0,7.956602E-1,1.6810474E-1,-4.023238E-1,5.3765166E-1,-8.6997336E-1,-1.6447158E-1],"categories":[],"categories_nodes":[],"categories_segments":[],"categories_sizes":[],"default_left":[true,true,false,false,true,true,false,true,true,true,true,true,true,false,false,false,false,false,false,false,false],"id":38,"left_children":[1,3,-1,-1,5,7,-1,9,11,13,15,17,19,-1,-1,-1,-1,-1,-1,-1,-1],"loss_changes":[1.2936057E3,7.152202E2,0E0,0E0,6.568871E2,7.424048E2,0E0,4.104881E2,3.4545282E2,2.886852E2,6.94428E2,1.8794214E2,3.1029068E2,0E0,0E0,0E0,0E0,0E0,0E0,0E0,0E0],"parents":[2147483647,0,0,1,1,4,4,5,5,7,7,8,8,9,9,10,10,11,11,12,12],"right_children":[2,4,-1,-1,6,8,-1,10,12,14,16,18,20,-1,-1,-1,-1,-1,-1,-1,-1],"split_conditions":[1.5E0,5E-1,-1.0330804E-1,-1.01970665E-1,5E-1,3.108391E0,-1.0380558E-1,7.858254E0,5.5605855E0,5.61557E0,5.9229045E0,7.7566233E0,8.201523E0,5.6396765E-3,-1.2351972E-1,7.9566024E-2,1.6810475E-2,-4.0232383E-2,5.3765167E-2,-8.699734E-2,-1.6447159E-2],"split_indices":[6,20,0,0,21,3,0,2,1,1,1,2,2,0,0,0,0,0,0,0,0],"split_type":[0,0,0,0,0,0,0,0,0,0,0,0,0,0,0,0,0,0,0,0,0],"sum_hessian":[1.5834294E4,1.465045E4,1.1838431E3,5.9499866E2,1.4055451E4,1.3565884E4,4.8956738E2,8.481388E3,5.0844966E3,7.8201764E2,7.6993696E3,1.1708699E3,3.913627E3,5.2505035E2,2.569673E2,2.7345479E3,4.9648223E3,2.782291E2,8.9264075E2,7.774961E2,3.1361309E3],"tree_param":{"num_deleted":"0","num_feature":"24","num_nodes":"21","size_leaf_vector":"0"}},{"base_weights":[-2.9550642E-2,4.5379147E-2,-1.0296744E0,1.1595872E-1,-5.788324E-1,1.5777737E-1,-1.0324326E0,-2.2081073E-1,-8.634719E-1,2.2152254E-2,5.051564E-1,-3.0281993E-2,-8.349282E-1,-1.8306296E-1,-9.695264E-1,2.5014386E-1,-5.274873E-1,7.664528E-1,-3.8851708E-1,-2.5658244E-1,8.159862E-1,-1.3865612E0,5.7359004E-1,1.11527815E-1,-1.0548447E0,-1.1484017E0,-6.2590617E-1,-2.5296026E-1,4.8342037E-1,-3.3460703E-1,-9.8508E-1,-1.0103104E0,8.2513994E-1,-9.874432E-1,3.3223808E-1,-7.05714E-2,-1.3959488E0,9.631428E-1,-9.00754E-1,-7.833159E-1,-1.6389184E0,1.1814432E0,-5.7624793E-1,3.281631E-1,-6.279159E-1,2.2642903E-1,-1.228143E0,-3.6135787E-1,-1.2273779E0,5.469753E-1,-1.0331677E0],"categories":[],"categories_nodes":[],"categories_segments":[],"categories_sizes":[],"default_left":[true,true,false,true,true,true,false,true,true,true,true,true,true,true,true,true,true,true,true,true,true,true,true,true,true,true,true,false,false,false,false,false,false,false,false,false,false,false,false,false,false,false,false,false,false,false,false,false,false,false,false],"id":39,"left_children":[1,3,-1,5,7,9,-1,11,13,15,17,19,21,23,25,27,29,31,33,35,37,39,41,43,45,47,49,-1,-1,-1,-1,-1,-1,-1,-1,-1,-1,-1,-1,-1,-1,-1,-1,-1,-1,-1,-1,-1,-1,-1,-1],"loss_changes":[1.1559983E3,6.322216E2,0E0,6.19252E2,1.482536E2,5.860715E2,0E0,7.560778E1,5.827179E1,1.1215146E3,8.16024E2,9.4964E1,1.19810425E2,2.8668161E1,4.2239197E1,7.425769E2,2.3112415E2,2.8269287E2,3.4178516E2,8.2720184E1,2.7298744E1,1.5270905E1,3.1308537E1,1.3573666E1,6.632475E0,2.7998962E1,1.1651761E2,0E0,0E0,0E0,0E0,0E0,0E0,0E0,0E0,0E0,0E0,0E0,0E0,0E0,0E0,0E0,0E0,0E0,0E0,0E0,0E0,0E0,0E0,0E0,0E0],"parents":[2147483647,0,0,1,1,3,3,4,4,5,5,7,7,8,8,9,9,10,10,11,11,12,12,13,13,14,14,15,15,16,16,17,17,18,18,19,19,20,20,21,21,22,22,23,23,24,24,25,25,26,26],"right_children":[2,4,-1,6,8,10,-1,12,14,16,18,20,22,24,26,28,30,32,34,36,38,40,42,44,46,48,50,-1,-1,-1,-1,-1,-1,-1,-1,-1,-1,-1,-1,-1,-1,